{"learner":{"attributes":{"scikit_learn":"{\"_estimator_type\": \"classifier\"}"},"feature_names":["sender_domain_length","sender_has_digits","sender_has_special_chars","sender_tld","sender_is_public_domain","receiver_is_undisclosed","receiver_is_public_domain","sender_equals_receiver","email_hour","is_weekend","url_present","url_has_ip","url_has_special_chars","url_has_redirect","url_suspicious_tld","subject_length","body_length","text_combined_length","uppercase_ratio","exclamation_count","url_length_ratio","url_density"],"feature_types":["int","int","int","int","int","int","int","int","int","int","int","float","float","float","float","int","int","int","float","int","float","float"],"gradient_booster":{"model":{"gbtree_model_param":{"num_parallel_tree":"1","num_trees":"100"},"iteration_indptr":[0,1,2,3,4,5,6,7,8,9,10,11,12,13,14,15,16,17,18,19,20,21,22,23,24,25,26,27,28,29,30,31,32,33,34,35,36,37,38,39,40,41,42,43,44,45,46,47,48,49,50,51,52,53,54,55,56,57,58,59,60,61,62,63,64,65,66,67,68,69,70,71,72,73,74,75,76,77,78,79,80,81,82,83,84,85,86,87,88,89,90,91,92,93,94,95,96,97,98,99,100],"tree_info":[0,0,0,0,0,0,0,0,0,0,0,0,0,0,0,0,0,0,0,0,0,0,0,0,0,0,0,0,0,0,0,0,0,0,0,0,0,0,0,0,0,0,0,0,0,0,0,0,0,0,0,0,0,0,0,0,0,0,0,0,0,0,0,0,0,0,0,0,0,0,0,0,0,0,0,0,0,0,0,0,0,0,0,0,0,0,0,0,0,0,0,0,0,0,0,0,0,0,0,0],"trees":[{"base_weights":[1.0865572E-2,6.493478E-1,-1.4057369E0,-1.1590884E0,1.036688E0,-1.4674498E0,1.7314921E-1,-1.2024156E0,1.413759E-1,1.2297467E0,-8.2582045E-1,-9.000796E-1,-1.6756518E0,-1.5302166E-1,-7.909265E-2,1.3590522E-1,-1.023558E-1,-9.5057264E-2,1.5554838E-1,-6.3451454E-2,-1.636775E-1,-1.6961296E-1,1.2720977E-1],"categories":[],"categories_nodes":[],"categories_segments":[],"categories_sizes":[],"default_left":[0,0,0,0,0,0,0,0,0,0,0,0,0,0,0,0,0,0,0,0,0,0,0],"id":0,"left_children":[1,3,5,7,9,11,-1,13,-1,15,17,19,21,-1,-1,-1,-1,-1,-1,-1,-1,-1,-1],"loss_changes":[1.1344749E3,6.0682996E2,7.798779E1,1.875415E1,2.5724872E2,4.3700867E1,0E0,1.9156845E1,0E0,1.8963501E2,2.1538696E1,1.948413E1,1.8987732E1,0E0,0E0,0E0,0E0,0E0,0E0,0E0,0E0,0E0,0E0],"parents":[2147483647,0,0,1,1,2,2,3,3,4,4,5,5,7,7,9,9,10,10,11,11,12,12],"right_children":[2,4,6,8,10,12,-1,14,-1,16,18,20,22,-1,-1,-1,-1,-1,-1,-1,-1,-1,-1],"split_conditions":[7.0101646E-4,1.014E3,2.4234265E-1,5.741228E-1,1.6E1,1.1947431E-3,1.7314921E-1,6.58E2,1.413759E-1,5.486E3,1E0,1.6E1,1.16E2,-1.5302166E-1,-7.909265E-2,1.3590522E-1,-1.023558E-1,-9.5057264E-2,1.5554838E-1,-6.3451454E-2,-1.636775E-1,-1.6961296E-1,1.2720977E-1],"split_indices":[21,16,18,18,0,21,0,16,0,16,1,0,3,0,0,0,0,0,0,0,0,0,0],"split_type":[0,0,0,0,0,0,0,0,0,0,0,0,0,0,0,0,0,0,0,0,0,0,0],"sum_hessian":[1.252281E3,8.635905E2,3.886905E2,1.5198795E2,7.116026E2,3.81714E2,6.976496E0,1.4999466E2,1.9932846E0,6.450767E2,6.652587E1,1.03899956E2,2.7781403E2,8.197383E1,6.8020836E1,6.104434E2,3.463332E1,6.3785107E1,2.7407663E0,7.77381E1,2.616186E1,2.7631906E2,1.4949634E0],"tree_param":{"num_deleted":"0","num_feature":"22","num_nodes":"23","size_leaf_vector":"1"}},{"base_weights":[-1.8754283E-2,1.3822808E0,-1.130607E0,-3.380377E-1,1.6530737E0,-1.5793136E0,-5.770181E-1,6.8286383E-1,-8.5074544E-1,1.7158744E0,-7.6486313E-1,-1.6002411E0,1.3625774E-1,1.0444789E-1,-1.3928657E0,-4.1747022E-2,1.2298592E-1,-3.564289E-2,-1.3462321E-1,1.7604804E-1,1.6239416E-2,8.610892E-2,-1.4565915E-1,1.435043E-1,-1.6198838E-1,6.6689216E-2,-1.3311505E-1,-1.4651994E-1,1.4784154E-1],"categories":[],"categories_nodes":[],"categories_segments":[],"categories_sizes":[],"default_left":[0,0,0,0,0,0,0,0,0,0,0,0,0,0,0,0,0,0,0,0,0,0,0,0,0,0,0,0,0],"id":1,"left_children":[1,3,5,7,9,11,13,15,17,19,21,23,-1,25,27,-1,-1,-1,-1,-1,-1,-1,-1,-1,-1,-1,-1,-1,-1],"loss_changes":[1.9431505E3,2.5767822E2,1.7184344E2,4.0305725E1,7.375049E1,2.5794006E1,1.7412274E2,1.6118439E1,1.2003334E1,3.19552E1,1.5614851E1,2.5058167E1,0E0,1.3931165E2,3.1759949E1,0E0,0E0,0E0,0E0,0E0,0E0,0E0,0E0,0E0,0E0,0E0,0E0,0E0,0E0],"parents":[2147483647,0,0,1,1,2,2,3,3,4,4,5,5,6,6,7,7,8,8,9,9,10,10,11,11,13,13,14,14],"right_children":[2,4,6,8,10,12,14,16,18,20,22,24,-1,26,28,-1,-1,-1,-1,-1,-1,-1,-1,-1,-1,-1,-1,-1,-1],"split_conditions":[2.9E1,1.038E3,1.759E3,1.8E1,1.650165E-3,5.741228E-1,4.009623E-4,4.11E2,2.5E1,1.8E1,2.1E1,0E0,1.3625774E-1,4.031E3,5.741228E-1,-4.1747022E-2,1.2298592E-1,-3.564289E-2,-1.3462321E-1,1.7604804E-1,1.6239416E-2,8.610892E-2,-1.4565915E-1,1.435043E-1,-1.6198838E-1,6.6689216E-2,-1.3311505E-1,-1.4651994E-1,1.4784154E-1],"split_indices":[15,16,16,15,21,18,21,16,15,0,15,8,0,16,18,0,0,0,0,0,0,0,0,0,0,0,0,0,0],"split_type":[0,0,0,0,0,0,0,0,0,0,0,0,0,0,0,0,0,0,0,0,0,0,0,0,0,0,0,0,0],"sum_hessian":[1.2454094E3,5.509364E2,6.9447296E2,7.489406E1,4.7604236E2,3.8254865E2,3.1192435E2,2.4927212E1,4.9966843E1,4.6427417E2,1.1768182E1,3.802994E2,2.2492402E0,1.7043466E2,1.4148969E2,8.355702E0,1.657151E1,2.587365E1,2.4093193E1,4.5118576E2,1.3088408E1,3.4392242E0,8.328958E0,1.9819504E0,3.7831744E2,1.2284244E2,4.759222E1,1.3849051E2,2.999166E0],"tree_param":{"num_deleted":"0","num_feature":"22","num_nodes":"29","size_leaf_vector":"1"}},{"base_weights":[-3.2958158E-3,1.4100901E0,-8.596682E-1,-4.548227E-1,1.5651728E0,-1.0008603E0,1.7435405E0,-7.0431846E-1,9.503805E-1,1.61114E0,1.1755003E-1,-3.1184134E-1,-1.2776692E0,1.8245064E-3,1.8195736E0,-1.05348505E-1,2.7570022E-2,1.4202635E-1,-2.8120553E-2,1.2002162E-1,1.6844176E-1,-1.08362556E-1,7.21243E-2,-1.0893158E-1,4.340373E-2,1.6266552E-1,-1.3031699E-1,1.8608217E-1,3.202967E-2],"categories":[],"categories_nodes":[],"categories_segments":[],"categories_sizes":[],"default_left":[0,0,0,0,0,0,0,0,0,0,0,0,0,0,0,0,0,0,0,0,0,0,0,0,0,0,0,0,0],"id":2,"left_children":[1,3,5,7,9,11,13,15,17,19,21,23,25,-1,27,-1,-1,-1,-1,-1,-1,-1,-1,-1,-1,-1,-1,-1,-1],"loss_changes":[1.4971616E3,1.3568622E2,2.8484802E2,1.3502607E1,2.849646E1,1.390697E2,5.21286E0,1.1124031E1,3.8396907E0,1.0557129E1,1.1184403E1,1.2277416E2,4.0731995E1,0E0,1.7721329E0,0E0,0E0,0E0,0E0,0E0,0E0,0E0,0E0,0E0,0E0,0E0,0E0,0E0,0E0],"parents":[2147483647,0,0,1,1,2,2,3,3,4,4,5,5,6,6,7,7,8,8,9,9,10,10,11,11,12,12,14,14],"right_children":[2,4,6,8,10,12,14,16,18,20,22,24,26,-1,28,-1,-1,-1,-1,-1,-1,-1,-1,-1,-1,-1,-1,-1,-1],"split_conditions":[2.5E1,7.7E2,1E0,7.9139456E-2,1.8E1,3.6E1,8.07E2,1.6E1,2E1,1.498E3,1.622E3,1.723E3,0E0,1.8245064E-3,6.7E1,-1.05348505E-1,2.7570022E-2,1.4202635E-1,-2.8120553E-2,1.2002162E-1,1.6844176E-1,-1.08362556E-1,7.21243E-2,-1.0893158E-1,4.340373E-2,1.6266552E-1,-1.3031699E-1,1.8608217E-1,3.202967E-2],"split_indices":[15,16,9,18,0,15,16,8,15,16,16,16,8,0,15,0,0,0,0,0,0,0,0,0,0,0,0,0,0],"split_type":[0,0,0,0,0,0,0,0,0,0,0,0,0,0,0,0,0,0,0,0,0,0,0,0,0,0,0,0,0],"sum_hessian":[1.234929E3,4.6569073E2,7.692383E2,3.560445E1,4.3008627E2,7.302469E2,3.899139E1,3.065958E1,4.944872E0,4.1674033E2,1.3345957E1,2.0990022E2,5.203467E2,1.698142E0,3.7293247E1,2.2550276E1,8.109304E0,3.46839E0,1.4764823E0,6.569833E1,3.51042E2,4.1980495E0,9.147906E0,1.02547905E2,1.0735232E2,3.9825015E0,5.1636414E2,3.6060017E1,1.2332298E0],"tree_param":{"num_deleted":"0","num_feature":"22","num_nodes":"29","size_leaf_vector":"1"}},{"base_weights":[3.2596157E-3,4.883172E-1,-1.1658938E0,-7.102936E-1,7.923045E-1,-1.2253292E0,1.4681217E-1,-8.129359E-1,1.7171317E-1,9.708829E-1,-7.6149607E-1,-1.2683525E0,1.1737341E0,-1.2678963E-1,-5.31664E-2,1.0885358E-1,-9.2893235E-2,-9.001425E-2,1.3792E-1,-1.2910265E-1,1.5435806E-1,1.4756648E-1,-1.0259875E-2],"categories":[],"categories_nodes":[],"categories_segments":[],"categories_sizes":[],"default_left":[0,0,0,0,0,0,0,0,0,0,0,0,0,0,0,0,0,0,0,0,0,0,0],"id":3,"left_children":[1,3,5,7,9,11,-1,13,-1,15,17,19,21,-1,-1,-1,-1,-1,-1,-1,-1,-1,-1],"loss_changes":[6.8996826E2,3.1387415E2,5.7649963E1,4.4871117E1,1.9119818E2,3.755493E1,0E0,2.08359E1,0E0,1.387174E2,2.2408173E1,2.3909485E1,2.7238455E0,0E0,0E0,0E0,0E0,0E0,0E0,0E0,0E0,0E0,0E0],"parents":[2147483647,0,0,1,1,2,2,3,3,4,4,5,5,7,7,9,9,10,10,11,11,12,12],"right_children":[2,4,6,8,10,12,-1,14,-1,16,18,20,22,-1,-1,-1,-1,-1,-1,-1,-1,-1,-1],"split_conditions":[7.570023E-4,1.242E3,2.4234265E-1,1E0,1.6E1,1E0,1.4681217E-1,5.95E2,1.7171317E-1,5.426E3,1E0,1.16E2,1E0,-1.2678963E-1,-5.31664E-2,1.0885358E-1,-9.2893235E-2,-9.001425E-2,1.3792E-1,-1.2910265E-1,1.5435806E-1,1.4756648E-1,-1.0259875E-2],"split_indices":[21,17,18,9,0,9,0,17,0,17,9,3,12,0,0,0,0,0,0,0,0,0,0],"split_type":[0,0,0,0,0,0,0,0,0,0,0,0,0,0,0,0,0,0,0,0,0,0,0],"sum_hessian":[1.2146423E3,8.588893E2,3.5575308E2,1.734896E2,6.853997E2,3.484258E2,7.3272653E0,1.6708942E2,6.400173E0,6.150833E2,7.031641E1,3.4275043E2,5.67536E0,6.2495125E1,1.0459429E2,5.7961554E2,3.5467762E1,6.65835E1,3.7329035E0,3.4054535E2,2.2051008E0,4.4633336E0,1.2120268E0],"tree_param":{"num_deleted":"0","num_feature":"22","num_nodes":"23","size_leaf_vector":"1"}},{"base_weights":[-4.571708E-3,1.2780057E0,-7.785503E-1,-1.3960923E-1,1.430588E0,-9.009856E-1,1.468469E0,7.113097E-1,-6.086574E-1,1.4725091E0,-2.9196858E-1,-3.5623345E-1,-1.2235962E0,1.5753614E0,1.2458333E-1,-2.497383E-2,1.3597932E-1,-1.1797472E-1,-1.3251416E-3,1.4984366E-1,4.3462913E-2,8.0765255E-2,-1.2316759E-1,1.3911488E-2,-1.2065257E-1,-1.4241752E-1,-9.5513016E-2,1.6183946E-1,2.002341E-2,-6.588181E-2,8.483735E-2],"categories":[],"categories_nodes":[],"categories_segments":[],"categories_sizes":[],"default_left":[0,0,0,0,0,0,0,0,0,0,0,0,0,0,0,0,0,0,0,0,0,0,0,0,0,0,0,0,0,0,0],"id":4,"left_children":[1,3,5,7,9,11,13,15,17,19,21,23,25,27,29,-1,-1,-1,-1,-1,-1,-1,-1,-1,-1,-1,-1,-1,-1,-1,-1],"loss_changes":[1.182922E3,9.720502E1,2.057781E2,1.8190151E1,2.9674133E1,1.2353003E2,5.37471E0,1.0479947E1,9.9200115E0,9.992065E0,1.1799374E1,1.1126689E2,2.2473572E1,1.7966919E0,2.7948194E0,0E0,0E0,0E0,0E0,0E0,0E0,0E0,0E0,0E0,0E0,0E0,0E0,0E0,0E0,0E0,0E0],"parents":[2147483647,0,0,1,1,2,2,3,3,4,4,5,5,6,6,7,7,8,8,9,9,10,10,11,11,12,12,13,13,14,14],"right_children":[2,4,6,8,10,12,14,16,18,20,22,24,26,28,30,-1,-1,-1,-1,-1,-1,-1,-1,-1,-1,-1,-1,-1,-1,-1,-1],"split_conditions":[2.5E1,8.7E2,1E0,1.6E1,1.6129032E-3,3.9E1,9.765625E-4,4.59E2,1E1,1.8E1,2.1E1,5.888126E-4,1.836E3,4.617E3,7.2115374E-1,-2.497383E-2,1.3597932E-1,-1.1797472E-1,-1.3251416E-3,1.4984366E-1,4.3462913E-2,8.0765255E-2,-1.2316759E-1,1.3911488E-2,-1.2065257E-1,-1.4241752E-1,-9.5513016E-2,1.6183946E-1,2.002341E-2,-6.588181E-2,8.483735E-2],"split_indices":[15,16,9,15,21,15,21,16,8,0,15,21,16,16,20,0,0,0,0,0,0,0,0,0,0,0,0,0,0,0,0],"split_type":[0,0,0,0,0,0,0,0,0,0,0,0,0,0,0,0,0,0,0,0,0,0,0,0,0,0,0,0,0,0,0],"sum_hessian":[1.1896335E3,4.4746988E2,7.4216364E2,4.349069E1,4.039792E2,7.043824E2,3.778126E1,1.527081E1,2.821988E1,3.94523E2,9.456187E0,2.6277365E2,4.4160873E2,3.483801E1,2.9432514E0,6.40038E0,8.87043E0,1.3903131E1,1.4316748E1,3.8447467E2,1.0048344E1,4.4220943E0,5.034093E0,1.6657164E2,9.6201996E1,2.5029854E2,1.913102E2,3.3609337E1,1.2286717E0,1.456529E0,1.4867224E0],"tree_param":{"num_deleted":"0","num_feature":"22","num_nodes":"31","size_leaf_vector":"1"}},{"base_weights":[2.6335192E-4,1.0320979E0,-8.498415E-1,-2.5999358E-1,1.254821E0,-9.5430267E-1,1.3522131E0,7.118484E-1,-6.1470854E-1,1.3048438E0,-4.2287284E-1,-1.2589061E0,-5.8463335E-1,1.5118045E0,-3.024808E-1,-1.7388513E-2,1.1275017E-1,-2.5365207E-2,-1.35518E-1,1.3377897E-1,-3.7059676E-2,9.198034E-2,-1.169289E-1,1.438521E-1,-1.2814294E-1,-5.237405E-3,-1.1516155E-1,1.5613739E-1,2.7200028E-2,-9.814411E-2,5.1341392E-2],"categories":[],"categories_nodes":[],"categories_segments":[],"categories_sizes":[],"default_left":[0,0,0,0,0,0,0,0,0,0,0,0,0,0,0,0,0,0,0,0,0,0,0,0,0,0,0,0,0,0,0],"id":5,"left_children":[1,3,5,7,9,11,13,15,17,19,21,23,25,27,29,-1,-1,-1,-1,-1,-1,-1,-1,-1,-1,-1,-1,-1,-1,-1,-1],"loss_changes":[1.01379535E3,1.5056866E2,1.4705612E2,2.7184677E1,3.7938477E1,6.745282E1,8.145306E0,8.004826E0,1.4996611E1,2.4387878E1,1.4759005E1,2.1961426E1,8.30606E1,1.2173424E0,2.3841197E0,0E0,0E0,0E0,0E0,0E0,0E0,0E0,0E0,0E0,0E0,0E0,0E0,0E0,0E0,0E0,0E0],"parents":[2147483647,0,0,1,1,2,2,3,3,4,4,5,5,6,6,7,7,8,8,9,9,10,10,11,11,12,12,13,13,14,14],"right_children":[2,4,6,8,10,12,14,16,18,20,22,24,26,28,30,-1,-1,-1,-1,-1,-1,-1,-1,-1,-1,-1,-1,-1,-1,-1,-1],"split_conditions":[2.9E1,1.038E3,1E0,1.6E1,1.6304348E-3,1.739E3,1E0,5.85E2,1.1463508E-3,4E0,2.1E1,0E0,3.8372984E-4,9.624639E-4,2.531E3,-1.7388513E-2,1.1275017E-1,-2.5365207E-2,-1.35518E-1,1.3377897E-1,-3.7059676E-2,9.198034E-2,-1.169289E-1,1.438521E-1,-1.2814294E-1,-5.237405E-3,-1.1516155E-1,1.5613739E-1,2.7200028E-2,-9.814411E-2,5.1341392E-2],"split_indices":[15,16,9,15,21,16,12,16,21,19,15,8,21,21,16,0,0,0,0,0,0,0,0,0,0,0,0,0,0,0,0],"split_type":[0,0,0,0,0,0,0,0,0,0,0,0,0,0,0,0,0,0,0,0,0,0,0,0,0,0,0,0,0,0,0],"sum_hessian":[1.1537601E3,5.2107684E2,6.326833E2,7.658924E1,4.444876E2,6.045703E2,2.8113016E1,2.0210377E1,5.637887E1,4.318341E2,1.2653518E1,3.3013623E2,2.7443408E2,2.5718847E1,2.3941693E0,6.640822E0,1.3569555E1,3.880162E1,1.757725E1,4.2370386E2,8.130235E0,4.438005E0,8.215513E0,2.2131782E0,3.2792303E2,1.421149E2,1.3231918E2,2.4480701E1,1.2381469E0,1.1959981E0,1.1981711E0],"tree_param":{"num_deleted":"0","num_feature":"22","num_nodes":"31","size_leaf_vector":"1"}},{"base_weights":[1.1257381E-3,9.7475934E-1,-7.955693E-1,-4.4712192E-1,1.1236024E0,-8.8241905E-1,1.2120832E0,2.7913603E-1,-8.6288655E-1,1.2442528E0,1.861837E-1,-5.682184E-1,-1.2351339E0,1.3576401E0,-2.5664581E-2,-4.9041267E-2,1.0023882E-1,-1.0117681E-1,-3.6868893E-2,1.323158E-1,7.463977E-2,7.808207E-2,-9.80937E-2,-1.9360011E-2,-1.1611594E-1,-1.2589093E-1,7.425361E-2,1.4252803E-1,4.7303797E-3],"categories":[],"categories_nodes":[],"categories_segments":[],"categories_sizes":[],"default_left":[0,0,0,0,0,0,0,0,0,0,0,0,0,0,0,0,0,0,0,0,0,0,0,0,0,0,0,0,0],"id":6,"left_children":[1,3,5,7,9,11,13,15,17,19,21,23,25,27,-1,-1,-1,-1,-1,-1,-1,-1,-1,-1,-1,-1,-1,-1,-1],"loss_changes":[8.629992E2,1.06464935E2,1.0775922E2,1.4782945E1,5.1061462E1,6.436081E1,5.8625946E0,1.0670707E1,1.8983955E0,1.4789795E1,3.747254E1,6.915564E1,1.3899933E1,2.026619E0,0E0,0E0,0E0,0E0,0E0,0E0,0E0,0E0,0E0,0E0,0E0,0E0,0E0,0E0,0E0],"parents":[2147483647,0,0,1,1,2,2,3,3,4,4,5,5,6,6,7,7,8,8,9,9,10,10,11,11,12,12,13,13],"right_children":[2,4,6,8,10,12,14,16,18,20,22,24,26,28,-1,-1,-1,-1,-1,-1,-1,-1,-1,-1,-1,-1,-1,-1,-1],"split_conditions":[2.9E1,7.67E2,1E0,2E1,7.570023E-4,4.8E1,9.624639E-4,4.74E2,1.7E1,2.5E1,2.3E1,7.570023E-4,1.16E2,2E0,-2.5664581E-2,-4.9041267E-2,1.0023882E-1,-1.0117681E-1,-3.6868893E-2,1.323158E-1,7.463977E-2,7.808207E-2,-9.80937E-2,-1.9360011E-2,-1.1611594E-1,-1.2589093E-1,7.425361E-2,1.4252803E-1,4.7303797E-3],"split_indices":[15,17,9,15,21,15,21,17,8,15,15,21,3,12,0,0,0,0,0,0,0,0,0,0,0,0,0,0,0],"split_type":[0,0,0,0,0,0,0,0,0,0,0,0,0,0,0,0,0,0,0,0,0,0,0,0,0,0,0,0,0],"sum_hessian":[1.1105585E3,4.996803E2,6.108782E2,4.7160183E1,4.525201E2,5.8608496E2,2.4793188E1,1.7288769E1,2.9871414E1,4.0062976E2,5.1890366E1,3.113465E2,2.7473846E2,2.2626451E1,2.1667364E0,8.53227E0,8.756499E0,2.2150944E1,7.72047E0,3.4438956E2,5.624018E1,3.459535E1,1.7295017E1,1.916127E2,1.19733795E2,2.7183395E2,2.904526E0,2.1432384E1,1.1940681E0],"tree_param":{"num_deleted":"0","num_feature":"22","num_nodes":"29","size_leaf_vector":"1"}},{"base_weights":[-2.991846E-3,9.964051E-1,-6.713829E-1,-2.9051664E-1,1.1593157E0,-7.7548033E-1,1.2669158E0,7.7611303E-1,-5.449381E-1,1.2505579E0,4.0740982E-1,-8.3098406E-1,1.5467712E0,1.3872023E-1,2.6632926E-1,-5.6867953E-2,1.0983957E-1,-2.5041658E-2,-1.2873231E-1,1.2708639E-1,-4.9535376E-3,1.0547894E-1,-2.1956531E-2,-1.13379195E-1,-4.898564E-2,-3.1721625E-2,1.7169607E-1,-4.1096706E-2,1.0941719E-1],"categories":[],"categories_nodes":[],"categories_segments":[],"categories_sizes":[],"default_left":[0,0,0,0,0,0,0,0,0,0,0,0,0,0,0,0,0,0,0,0,0,0,0,0,0,0,0,0,0],"id":7,"left_children":[1,3,5,7,9,11,13,15,17,19,21,23,25,-1,27,-1,-1,-1,-1,-1,-1,-1,-1,-1,-1,-1,-1,-1,-1],"loss_changes":[7.2958746E2,9.210693E1,1.3304047E2,1.3987392E1,2.6160156E1,8.1425446E1,3.6911545E0,4.9755797E0,8.630289E0,9.202148E0,1.7908546E1,6.2237396E1,5.2596626E0,0E0,3.1736372E0,0E0,0E0,0E0,0E0,0E0,0E0,0E0,0E0,0E0,0E0,0E0,0E0,0E0,0E0],"parents":[2147483647,0,0,1,1,2,2,3,3,4,4,5,5,6,6,7,7,8,8,9,9,10,10,11,11,12,12,14,14],"right_children":[2,4,6,8,10,12,14,16,18,20,22,24,26,-1,28,-1,-1,-1,-1,-1,-1,-1,-1,-1,-1,-1,-1,-1,-1],"split_conditions":[2.6E1,8.7E2,1E0,1.3E1,7.570023E-4,2.4234265E-1,7.570023E-4,2.03E2,3.8612366E-1,4E0,1.9E1,1.739E3,8.81E2,1.3872023E-1,6.564246E-2,-5.6867953E-2,1.0983957E-1,-2.5041658E-2,-1.2873231E-1,1.2708639E-1,-4.9535376E-3,1.0547894E-1,-2.1956531E-2,-1.13379195E-1,-4.898564E-2,-3.1721625E-2,1.7169607E-1,-4.1096706E-2,1.0941719E-1],"split_indices":[15,16,9,15,21,18,21,16,20,19,15,16,16,0,18,0,0,0,0,0,0,0,0,0,0,0,0,0,0],"split_type":[0,0,0,0,0,0,0,0,0,0,0,0,0,0,0,0,0,0,0,0,0,0,0,0,0,0,0,0,0],"sum_hessian":[1.090215E3,4.3672333E2,6.5349164E2,4.898447E1,3.8773886E2,6.2075366E2,3.2738E1,9.03902E0,3.994545E1,3.4518787E2,4.2550987E1,6.068906E2,1.38630295E1,2.8879797E1,3.8582015E0,1.5996417E0,7.4393783E0,2.9556864E1,1.0388586E1,3.399015E2,5.2863727E0,2.0599127E1,2.1951859E1,3.2027197E2,2.8661862E2,1.0875728E0,1.2775456E1,2.3990207E0,1.459181E0],"tree_param":{"num_deleted":"0","num_feature":"22","num_nodes":"29","size_leaf_vector":"1"}},{"base_weights":[-2.4810152E-2,9.9007314E-1,-6.186992E-1,-3.1303778E-1,1.1028473E0,-7.1804595E-1,1.2049079E0,-4.6309704E-1,1.31226E-1,1.1526567E0,-2.2295955E-1,-1.0714898E0,-3.3874464E-1,1.2888108E0,-2.9723088E-3,1.00080125E-1,-6.782415E-2,1.186864E-1,4.562197E-3,5.326836E-2,-1.1684232E-1,1.627021E-1,-1.0986669E-1,1.6913997E-2,-9.503219E-2,1.335096E-1,2.4933163E-2],"categories":[],"categories_nodes":[],"categories_segments":[],"categories_sizes":[],"default_left":[0,0,0,0,0,0,0,0,0,0,0,0,0,0,0,0,0,0,0,0,0,0,0,0,0,0,0],"id":8,"left_children":[1,3,5,7,9,11,13,15,-1,17,19,21,23,25,-1,-1,-1,-1,-1,-1,-1,-1,-1,-1,-1,-1,-1],"loss_changes":[6.286398E2,5.692914E1,1.2006343E2,8.277288E0,2.3673218E1,8.336841E1,3.598137E0,9.978596E0,0E0,1.2893616E1,1.0393821E1,2.5464233E1,9.419151E1,1.2163658E0,0E0,0E0,0E0,0E0,0E0,0E0,0E0,0E0,0E0,0E0,0E0,0E0,0E0],"parents":[2147483647,0,0,1,1,2,2,3,3,4,4,5,5,6,6,7,7,9,9,10,10,11,11,12,12,13,13],"right_children":[2,4,6,8,10,12,14,16,-1,18,20,22,24,26,-1,-1,-1,-1,-1,-1,-1,-1,-1,-1,-1,-1,-1],"split_conditions":[2.5E1,7.46E2,1E0,1E0,1.4492753E-3,1.739E3,9.624639E-4,1E1,1.31226E-1,1.8E1,2.1E1,0E0,3.7160906E-4,2E0,-2.9723088E-3,1.00080125E-1,-6.782415E-2,1.186864E-1,4.562197E-3,5.326836E-2,-1.1684232E-1,1.627021E-1,-1.0986669E-1,1.6913997E-2,-9.503219E-2,1.335096E-1,2.4933163E-2],"split_indices":[15,16,9,9,21,16,21,0,0,0,15,8,21,12,0,0,0,0,0,0,0,0,0,0,0,0,0],"split_type":[0,0,0,0,0,0,0,0,0,0,0,0,0,0,0,0,0,0,0,0,0,0,0,0,0,0,0],"sum_hessian":[1.0409744E3,3.8403635E2,6.56938E2,3.0446774E1,3.5358957E2,6.235731E2,3.336486E1,2.8527937E1,1.9188365E0,3.409124E2,1.2677166E1,3.2184436E2,3.0172873E2,3.1200647E1,2.1642137E0,3.1875129E0,2.5340424E1,3.3062405E2,1.0288354E1,7.288537E0,5.388629E0,2.6220756E0,3.192223E2,1.6523375E2,1.36495E2,2.9598326E1,1.6023216E0],"tree_param":{"num_deleted":"0","num_feature":"22","num_nodes":"27","size_leaf_vector":"1"}},{"base_weights":[-2.374024E-3,6.8204886E-1,-7.528391E-1,-2.5187284E-1,9.3968034E-1,-8.1913424E-1,9.382693E-1,5.3591317E-1,-5.801375E-1,1.007953E0,-3.2881886E-1,1.7072849E-1,-8.582465E-1,-4.0755015E-2,1.0927492E0,7.4114196E-2,-1.0229763E-1,-9.9891454E-2,-1.4917644E-2,1.07738055E-1,1.0141556E-2,7.949451E-2,-7.547032E-2,-8.9489244E-2,1.3720146E-1,1.1824515E-1,-1.1950171E-2],"categories":[],"categories_nodes":[],"categories_segments":[],"categories_sizes":[],"default_left":[0,0,0,0,0,0,0,0,0,0,0,0,0,0,0,0,0,0,0,0,0,0,0,0,0,0,0],"id":9,"left_children":[1,3,5,7,9,11,13,15,17,19,21,-1,23,-1,25,-1,-1,-1,-1,-1,-1,-1,-1,-1,-1,-1,-1],"loss_changes":[5.1704535E2,1.2691342E2,5.4599518E1,2.9952652E1,3.6087067E1,4.717392E1,4.307976E0,1.1710586E1,1.4539791E1,2.4564178E1,1.1052502E1,0E0,3.85119E1,0E0,1.9831352E0,0E0,0E0,0E0,0E0,0E0,0E0,0E0,0E0,0E0,0E0,0E0,0E0],"parents":[2147483647,0,0,1,1,2,2,3,3,4,4,5,5,6,6,7,7,8,8,9,9,10,10,12,12,14,14],"right_children":[2,4,6,8,10,12,14,16,18,20,22,-1,24,-1,26,-1,-1,-1,-1,-1,-1,-1,-1,-1,-1,-1,-1],"split_conditions":[3.3E1,1.194E3,1E0,1.8E1,3E0,0E0,8.07E2,1.6E1,1E1,1.6E1,1.8E1,1.7072849E-1,2.4234265E-1,-4.0755015E-2,4.277E3,7.4114196E-2,-1.0229763E-1,-9.9891454E-2,-1.4917644E-2,1.07738055E-1,1.0141556E-2,7.949451E-2,-7.547032E-2,-8.9489244E-2,1.3720146E-1,1.1824515E-1,-1.1950171E-2],"split_indices":[15,16,9,15,19,8,16,0,8,0,15,0,18,0,16,0,0,0,0,0,0,0,0,0,0,0,0],"split_type":[0,0,0,0,0,0,0,0,0,0,0,0,0,0,0,0,0,0,0,0,0,0,0,0,0,0,0],"sum_hessian":[1.00463904E3,5.2548694E2,4.7915207E2,1.136229E2,4.1186404E2,4.61573E2,1.757906E1,3.3233917E1,8.0388985E1,3.910239E2,2.0840149E1,6.386583E0,4.5518643E2,1.6413671E0,1.5937692E1,2.9831194E1,3.4027233E0,4.0102436E1,4.028655E1,3.6303247E2,2.7991438E1,5.4892664E0,1.5350882E1,4.484171E2,6.769295E0,1.4862502E1,1.07519E0],"tree_param":{"num_deleted":"0","num_feature":"22","num_nodes":"27","size_leaf_vector":"1"}},{"base_weights":[1.6281258E-2,9.340316E-1,-5.275745E-1,-1.9716363E-1,1.037961E0,-1.8684104E-1,-1.0123643E0,1.3733193E-1,-3.2006153E-1,1.0859159E0,-2.0835117E-1,-8.015609E-1,2.0905446E-1,-1.0441401E0,1.2554172E0,-4.683384E-2,1.2133608E-1,1.1388872E-1,1.2222598E-2,2.8593896E-2,-1.0858124E-1,1.3772474E-1,-8.487716E-2,5.244009E-2,-1.11268185E-1,1.5249671E-1,-1.07086204E-1,1.710111E-1,-1.2426111E-3],"categories":[],"categories_nodes":[],"categories_segments":[],"categories_sizes":[],"default_left":[0,0,0,0,0,0,0,0,0,0,0,0,0,0,0,0,0,0,0,0,0,0,0,0,0,0,0,0,0],"id":10,"left_children":[1,3,5,7,9,11,13,-1,15,17,19,21,23,25,27,-1,-1,-1,-1,-1,-1,-1,-1,-1,-1,-1,-1,-1,-1],"loss_changes":[4.7669666E2,4.1983337E1,9.8873535E1,6.3731914E0,1.9687897E1,8.617452E1,1.9131638E1,0E0,7.235382E0,1.5875641E1,5.9072204E0,1.5430908E1,9.051239E1,1.8413666E1,2.2530074E0,0E0,0E0,0E0,0E0,0E0,0E0,0E0,0E0,0E0,0E0,0E0,0E0,0E0,0E0],"parents":[2147483647,0,0,1,1,2,2,3,3,4,4,5,5,6,6,8,8,9,9,10,10,11,11,12,12,13,13,14,14],"right_children":[2,4,6,8,10,12,14,-1,16,18,20,22,24,26,28,-1,-1,-1,-1,-1,-1,-1,-1,-1,-1,-1,-1,-1,-1],"split_conditions":[2.5E1,7.67E2,5.888126E-4,0E0,1.8E1,1.811E3,1.16E2,1.3733193E-1,1E0,1.2345678E-3,3.1816735E-4,0E0,4.617E3,0E0,1.3E1,-4.683384E-2,1.2133608E-1,1.1388872E-1,1.2222598E-2,2.8593896E-2,-1.0858124E-1,1.3772474E-1,-8.487716E-2,5.244009E-2,-1.11268185E-1,1.5249671E-1,-1.07086204E-1,1.710111E-1,-1.2426111E-3],"split_indices":[15,17,21,8,0,17,3,0,9,21,21,8,16,8,0,0,0,0,0,0,0,0,0,0,0,0,0,0,0],"split_type":[0,0,0,0,0,0,0,0,0,0,0,0,0,0,0,0,0,0,0,0,0,0,0,0,0,0,0,0,0],"sum_hessian":[9.530797E2,3.5436887E2,5.987109E2,2.974283E1,3.2462604E2,3.5240747E2,2.4630338E2,1.420183E0,2.8322647E1,3.12722E2,1.1904038E1,1.3764967E2,2.1475781E2,2.4343202E2,2.87135E0,2.6458754E1,1.8638933E0,2.9625586E2,1.6466133E1,8.045813E0,3.858226E0,2.3218622E0,1.3532782E2,1.738767E2,4.0881123E1,1.9287614E0,2.4150327E2,1.8566535E0,1.0146967E0],"tree_param":{"num_deleted":"0","num_feature":"22","num_nodes":"29","size_leaf_vector":"1"}},{"base_weights":[-8.746642E-4,6.5216833E-1,-6.994706E-1,8.4469545E-1,-2.835189E-1,-7.44774E-1,1.5587586E-1,-6.0148513E-1,9.3383294E-1,8.862001E-1,-5.379622E-1,-1.0083746E0,-4.441024E-1,1.8473873E-2,-9.411871E-2,9.870054E-2,-1.7923124E-2,1.1341814E-1,-1.0321158E-1,-6.696375E-2,1.1890286E-1,1.24683075E-1,-1.03714444E-1,-7.365906E-3,-1.1031868E-1],"categories":[],"categories_nodes":[],"categories_segments":[],"categories_sizes":[],"default_left":[0,0,0,0,0,0,0,0,0,0,0,0,0,0,0,0,0,0,0,0,0,0,0,0,0],"id":11,"left_children":[1,3,5,7,9,11,-1,13,15,17,19,21,23,-1,-1,-1,-1,-1,-1,-1,-1,-1,-1,-1,-1],"loss_changes":[4.1936386E2,8.5827255E1,4.65972E1,5.138797E1,2.4829834E1,3.4113525E1,0E0,6.4501257E0,2.2180511E1,8.30458E0,1.6220346E1,1.6317795E1,5.0091236E1,0E0,0E0,0E0,0E0,0E0,0E0,0E0,0E0,0E0,0E0,0E0,0E0],"parents":[2147483647,0,0,1,1,2,2,3,3,4,4,5,5,7,7,8,8,9,9,10,10,11,11,12,12],"right_children":[2,4,6,8,10,12,-1,14,16,18,20,22,24,-1,-1,-1,-1,-1,-1,-1,-1,-1,-1,-1,-1],"split_conditions":[3.3E1,7.806401E-4,5.741228E-1,5.85E2,1.5E1,1.836E3,1.5587586E-1,1.8E1,3E0,1.9E1,1.5695365E-1,0E0,1.4E1,1.8473873E-2,-9.411871E-2,9.870054E-2,-1.7923124E-2,1.1341814E-1,-1.0321158E-1,-6.696375E-2,1.1890286E-1,1.24683075E-1,-1.03714444E-1,-7.365906E-3,-1.1031868E-1],"split_indices":[15,21,18,16,15,16,0,15,19,0,18,8,0,0,0,0,0,0,0,0,0,0,0,0,0],"split_type":[0,0,0,0,0,0,0,0,0,0,0,0,0,0,0,0,0,0,0,0,0,0,0,0,0],"sum_hessian":[9.1722797E2,4.7410452E2,4.4312344E2,3.9328036E2,8.082417E1,4.3506558E2,8.057864E0,2.2499365E1,3.70781E2,1.3996587E1,6.682758E1,2.3056982E2,2.0449574E2,6.9258924E0,1.5573472E1,3.53984E2,1.6796982E1,1.2756333E1,1.2402533E0,6.266213E1,4.1654534E0,2.3710346E0,2.2819879E2,1.3162608E2,7.286967E1],"tree_param":{"num_deleted":"0","num_feature":"22","num_nodes":"25","size_leaf_vector":"1"}},{"base_weights":[-9.683629E-3,7.6806664E-1,-5.152519E-1,-9.525704E-2,9.342846E-1,-2.0939615E-1,-9.849993E-1,8.8107355E-2,-1.2003299E-1,1.0398306E0,2.6373193E-1,1.824397E-1,-7.6571095E-1,-1.0210702E0,1.2413934E0,1.188512E-1,-1.0505896E-2,1.0656704E-1,-2.5296858E-2,-1.1774707E-1,4.5716252E-2,-7.652467E-2,4.702124E-2,-1.1181245E-1,-4.9051996E-2,1.1088566E-1,-1.03851214E-1,1.5545101E-1,2.9678226E-2],"categories":[],"categories_nodes":[],"categories_segments":[],"categories_sizes":[],"default_left":[0,0,0,0,0,0,0,0,0,0,0,0,0,0,0,0,0,0,0,0,0,0,0,0,0,0,0,0,0],"id":12,"left_children":[1,3,5,7,9,11,13,15,-1,17,19,21,23,25,27,-1,-1,-1,-1,-1,-1,-1,-1,-1,-1,-1,-1,-1,-1],"loss_changes":[3.5055148E2,5.0489502E1,7.742012E1,1.1779725E1,2.057663E1,7.174747E1,1.8356445E1,1.0826147E1,0E0,8.761444E0,1.2081057E1,5.3144608E1,1.2636047E1,8.951111E0,6.7557144E-1,0E0,0E0,0E0,0E0,0E0,0E0,0E0,0E0,0E0,0E0,0E0,0E0,0E0,0E0],"parents":[2147483647,0,0,1,1,2,2,3,3,4,4,5,5,6,6,7,7,9,9,10,10,11,11,12,12,13,13,14,14],"right_children":[2,4,6,8,10,12,14,16,-1,18,20,22,24,26,28,-1,-1,-1,-1,-1,-1,-1,-1,-1,-1,-1,-1,-1,-1],"split_conditions":[2.6E1,1.038E3,6.255865E-4,1.6E1,6.568864E-4,4.5E1,1.16E2,1.1E1,-1.2003299E-1,4E0,6.3157886E-1,1.269E3,8E0,0E0,1.3E1,1.188512E-1,-1.0505896E-2,1.0656704E-1,-2.5296858E-2,-1.1774707E-1,4.5716252E-2,-7.652467E-2,4.702124E-2,-1.1181245E-1,-4.9051996E-2,1.1088566E-1,-1.03851214E-1,1.5545101E-1,2.9678226E-2],"split_indices":[15,16,21,0,21,15,3,15,0,19,20,17,8,8,0,0,0,0,0,0,0,0,0,0,0,0,0,0,0],"split_type":[0,0,0,0,0,0,0,0,0,0,0,0,0,0,0,0,0,0,0,0,0,0,0,0,0,0,0,0,0],"sum_hessian":[8.8951495E2,3.502233E2,5.392917E2,5.661195E1,2.9361136E2,3.2749997E2,2.1179172E2,4.93445E1,7.2674475E0,2.532057E2,4.040564E1,1.9255058E2,1.3494939E2,2.0894781E2,2.8438933E0,6.5990577E0,4.274544E1,2.4841618E2,4.7895236E0,4.1793146E0,3.6226326E1,4.4463898E1,1.4808669E2,5.782928E1,7.712011E1,1.1889098E0,2.0775891E2,1.6509728E0,1.1929204E0],"tree_param":{"num_deleted":"0","num_feature":"22","num_nodes":"29","size_leaf_vector":"1"}},{"base_weights":[1.6646931E-2,5.832459E-1,-5.948722E-1,-3.6636996E-1,7.5693893E-1,-8.712222E-1,-2.0428388E-1,2.022398E-2,-7.4865216E-1,9.2250395E-1,2.0040271E-3,-8.954971E-1,1.2583044E-1,1.9859505E-1,-1.0180317E0,-1.5642606E-2,1.2316799E-1,-8.099919E-2,3.9795898E-2,9.9991225E-2,1.3705867E-2,5.4802652E-2,-3.8270272E-2,-9.213299E-2,8.814255E-2,7.623192E-2,-4.68417E-2,-1.0452197E-1,6.0358807E-3],"categories":[],"categories_nodes":[],"categories_segments":[],"categories_sizes":[],"default_left":[0,0,0,0,0,0,0,0,0,0,0,0,0,0,0,0,0,0,0,0,0,0,0,0,0,0,0,0,0],"id":13,"left_children":[1,3,5,7,9,11,13,15,17,19,21,23,-1,25,27,-1,-1,-1,-1,-1,-1,-1,-1,-1,-1,-1,-1,-1,-1],"loss_changes":[2.9580466E2,7.336705E1,4.4141968E1,1.0240969E1,4.6861206E1,1.3541626E1,5.6407883E1,7.7632556E0,2.7710934E0,1.8558533E1,1.4585936E1,1.1738693E1,0E0,4.3788742E1,1.7323761E0,0E0,0E0,0E0,0E0,0E0,0E0,0E0,0E0,0E0,0E0,0E0,0E0,0E0,0E0],"parents":[2147483647,0,0,1,1,2,2,3,3,4,4,5,5,6,6,7,7,8,8,9,9,10,10,11,11,13,13,14,14],"right_children":[2,4,6,8,10,12,14,16,18,20,22,24,-1,26,28,-1,-1,-1,-1,-1,-1,-1,-1,-1,-1,-1,-1,-1,-1],"split_conditions":[3.3E1,9.12E2,2.267E3,2.3E1,6.097561E-4,5.741228E-1,4.182E3,8.5801065E-2,9E1,2E0,2.1E1,1.16E2,1.2583044E-1,4.8E1,2E1,-1.5642606E-2,1.2316799E-1,-8.099919E-2,3.9795898E-2,9.9991225E-2,1.3705867E-2,5.4802652E-2,-3.8270272E-2,-9.213299E-2,8.814255E-2,7.623192E-2,-4.68417E-2,-1.0452197E-1,6.0358807E-3],"split_indices":[15,17,17,15,21,18,17,18,3,19,15,3,0,15,19,0,0,0,0,0,0,0,0,0,0,0,0,0,0],"split_type":[0,0,0,0,0,0,0,0,0,0,0,0,0,0,0,0,0,0,0,0,0,0,0,0,0,0,0,0,0],"sum_hessian":[8.51726E2,4.4212463E2,4.0960138E2,6.8192566E1,3.7393207E2,2.3915985E2,1.7044151E2,3.437597E1,3.38166E1,3.0649304E2,6.743904E1,2.3703731E2,2.1225452E0,1.1450641E2,5.59351E1,3.076134E1,3.6146278E0,3.2378063E1,1.4385376E0,2.7874838E2,2.7744635E1,2.7699713E1,3.9739323E1,2.3411525E2,2.9220595E0,6.1980663E1,5.252575E1,5.4589573E1,1.3455279E0],"tree_param":{"num_deleted":"0","num_feature":"22","num_nodes":"29","size_leaf_vector":"1"}},{"base_weights":[-7.4930703E-3,2.6094404E-1,-7.341437E-1,3.9760926E-1,-7.811897E-1,1.3752393E-1,-7.902851E-1,-2.115999E-1,6.6865206E-1,-8.528566E-1,9.646326E-2,-8.426601E-1,1.022803E0,-6.629924E-2,1.4931818E-2,8.308944E-2,-6.0833808E-2,-9.167877E-2,8.274727E-2,-8.910705E-2,6.815213E-2,3.1178575E-3,1.19819224E-1],"categories":[],"categories_nodes":[],"categories_segments":[],"categories_sizes":[],"default_left":[0,0,0,0,0,0,0,0,0,0,0,0,0,0,0,0,0,0,0,0,0,0,0],"id":14,"left_children":[1,3,5,7,9,-1,11,13,15,17,-1,19,21,-1,-1,-1,-1,-1,-1,-1,-1,-1,-1],"loss_changes":[1.6150856E2,8.642739E1,2.7537811E1,8.85171E1,9.6357765E0,0E0,2.158258E1,2.7071371E1,7.729837E1,8.084118E0,0E0,1.6296097E1,1.1066952E0,0E0,0E0,0E0,0E0,0E0,0E0,0E0,0E0,0E0,0E0],"parents":[2147483647,0,0,1,1,2,2,3,3,4,4,6,6,7,7,8,8,9,9,11,11,12,12],"right_children":[2,4,6,8,10,-1,12,14,16,18,-1,20,22,-1,-1,-1,-1,-1,-1,-1,-1,-1,-1],"split_conditions":[7.570023E-4,1.6E1,0E0,1.637E3,1E0,1.3752393E-1,1.7295226E-1,9E0,4.617E3,2.0833333E-1,9.646326E-2,1E0,9.79E2,-6.629924E-2,1.4931818E-2,8.308944E-2,-6.0833808E-2,-9.167877E-2,8.274727E-2,-8.910705E-2,6.815213E-2,3.1178575E-3,1.19819224E-1],"split_indices":[21,0,8,16,1,0,18,8,16,18,0,9,16,0,0,0,0,0,0,0,0,0,0],"split_type":[0,0,0,0,0,0,0,0,0,0,0,0,0,0,0,0,0,0,0,0,0,0,0],"sum_hessian":[8.2601215E2,6.036532E2,2.2235889E2,5.3421484E2,6.943836E1,5.1555376E0,2.1720335E2,1.645603E2,3.6965457E2,6.71916E1,2.2467616E0,2.1162532E2,5.578026E0,7.2743996E1,9.181631E1,3.2829395E2,4.1360607E1,6.516662E1,2.0249796E0,2.0551329E2,6.1120424E0,1.0153217E0,4.562704E0],"tree_param":{"num_deleted":"0","num_feature":"22","num_nodes":"23","size_leaf_vector":"1"}},{"base_weights":[-7.18019E-3,2.5324485E-1,-6.591505E-1,-4.6789852E-1,4.51155E-1,-7.294223E-1,9.5737845E-1,-5.66926E-1,8.70413E-1,5.901517E-1,-6.774968E-1,1.2524022E-1,-7.877723E-1,1.1469462E-1,1.4418685E-1,1.5050982E-1,-6.304055E-2,-1.3410928E-2,1.2655148E-1,7.287367E-2,-2.4433134E-2,-2.166748E-3,-9.312972E-2,-8.4342346E-2,8.342013E-2,2.306667E-2,-1.3711234E-3],"categories":[],"categories_nodes":[],"categories_segments":[],"categories_sizes":[],"default_left":[0,0,0,0,0,0,0,0,0,0,0,0,0,0,0,0,0,0,0,0,0,0,0,0,0,0,0],"id":15,"left_children":[1,3,5,7,9,11,13,15,17,19,21,-1,23,-1,25,-1,-1,-1,-1,-1,-1,-1,-1,-1,-1,-1,-1],"loss_changes":[1.3516658E2,8.140219E1,2.6510063E1,1.679376E1,7.0506454E1,2.6233582E1,1.360528E0,1.6091381E1,3.6894236E0,4.6253754E1,8.213427E0,0E0,1.9902344E1,0E0,4.4333406E-2,0E0,0E0,0E0,0E0,0E0,0E0,0E0,0E0,0E0,0E0,0E0,0E0],"parents":[2147483647,0,0,1,1,2,2,3,3,4,4,5,5,6,6,7,7,8,8,9,9,10,10,12,12,14,14],"right_children":[2,4,6,8,10,12,14,16,18,20,22,-1,24,-1,26,-1,-1,-1,-1,-1,-1,-1,-1,-1,-1,-1,-1],"split_conditions":[6.568864E-4,1.212E3,1E0,9E1,4.617E3,0E0,1E0,0E0,6.77E2,1.5E1,3.5340965E-2,1.2524022E-1,1.7295226E-1,1.1469462E-1,2.05E3,1.5050982E-1,-6.304055E-2,-1.3410928E-2,1.2655148E-1,7.287367E-2,-2.4433134E-2,-2.166748E-3,-9.312972E-2,-8.4342346E-2,8.342013E-2,2.306667E-2,-1.3711234E-3],"split_indices":[21,16,9,3,16,8,12,8,16,0,18,0,18,0,16,0,0,0,0,0,0,0,0,0,0,0,0],"split_type":[0,0,0,0,0,0,0,0,0,0,0,0,0,0,0,0,0,0,0,0,0,0,0,0,0,0,0],"sum_hessian":[7.941006E2,5.6787744E2,2.2622316E2,1.2199368E2,4.4588376E2,2.1732466E2,8.898502E0,1.14125435E2,7.8682475E0,3.9741772E2,4.8466015E1,5.630327E0,2.1169434E2,6.883439E0,2.015063E0,2.717391E0,1.1140804E2,2.4076114E0,5.460636E0,3.4092593E2,5.6491806E1,1.3825581E1,3.4640434E1,2.0513597E2,6.5583634E0,1.0042068E0,1.0108563E0],"tree_param":{"num_deleted":"0","num_feature":"22","num_nodes":"27","size_leaf_vector":"1"}},{"base_weights":[1.0162971E-2,7.471806E-1,-3.9864603E-1,8.1765735E-1,-6.161794E-1,-1.191781E-1,-8.538099E-1,8.8118315E-1,-4.058063E-1,8.588175E-1,-1.0437582E0,6.735492E-2,-8.654132E-1,-9.049093E-1,8.3921975E-1,-4.1075356E-2,9.0908945E-2,-1.449339E-1,1.005802E-2,1.0385235E-2,1.1290943E-1,-1.1821425E-1,-3.5991948E-2,3.2111E-2,-4.783766E-2,-5.3224325E-2,-1.01780795E-1,-1.05175555E-1,-6.4527564E-2,1.3174201E-2,9.8097704E-2],"categories":[],"categories_nodes":[],"categories_segments":[],"categories_sizes":[],"default_left":[0,0,0,0,0,0,0,0,0,0,0,0,0,0,0,0,0,0,0,0,0,0,0,0,0,0,0,0,0,0,0],"id":16,"left_children":[1,3,5,7,9,11,13,15,17,19,21,23,25,27,29,-1,-1,-1,-1,-1,-1,-1,-1,-1,-1,-1,-1,-1,-1,-1,-1],"loss_changes":[2.3385948E2,2.7111511E1,6.3406403E1,2.0855576E1,9.840332E0,4.327859E1,1.7176697E1,9.42395E0,7.386704E0,6.4500904E-1,6.576681E-1,3.4681606E1,2.6145859E0,6.362808E0,4.803896E-1,0E0,0E0,0E0,0E0,0E0,0E0,0E0,0E0,0E0,0E0,0E0,0E0,0E0,0E0,0E0,0E0],"parents":[2147483647,0,0,1,1,2,2,3,3,4,4,5,5,6,6,7,7,8,8,9,9,10,10,11,11,12,12,13,13,14,14],"right_children":[2,4,6,8,10,12,14,16,18,20,22,24,26,28,30,-1,-1,-1,-1,-1,-1,-1,-1,-1,-1,-1,-1,-1,-1,-1,-1],"split_conditions":[2.5E1,1.6129032E-3,4.8E1,1.8E1,1.3E1,1.1947431E-3,1E0,3.74E2,2.5E1,1.1E1,1.5E1,7.8E1,1.7910447E-3,2.445E3,8.61E2,-4.1075356E-2,9.0908945E-2,-1.449339E-1,1.005802E-2,1.0385235E-2,1.1290943E-1,-1.1821425E-1,-3.5991948E-2,3.2111E-2,-4.783766E-2,-5.3224325E-2,-1.01780795E-1,-1.05175555E-1,-6.4527564E-2,1.3174201E-2,9.8097704E-2],"split_indices":[15,21,15,0,15,21,9,17,3,8,8,3,21,17,17,0,0,0,0,0,0,0,0,0,0,0,0,0,0,0,0],"split_type":[0,0,0,0,0,0,0,0,0,0,0,0,0,0,0,0,0,0,0,0,0,0,0,0,0,0,0,0,0,0,0],"sum_hessian":[7.74181E2,2.7591766E2,4.9826337E2,2.627362E2,1.3181475E1,3.094963E2,1.8876707E2,2.500335E2,1.27027E1,2.735702E0,1.0445773E1,2.483317E2,6.1164608E1,1.8368846E2,5.0786223E0,4.9965467E0,2.4503694E2,3.541813E0,9.160887E0,1.0861104E0,1.6495918E0,8.081651E0,2.364122E0,1.6979277E2,7.853892E1,2.0606535E1,4.0558075E1,1.15379845E2,6.830862E1,1.1697952E0,3.908827E0],"tree_param":{"num_deleted":"0","num_feature":"22","num_nodes":"31","size_leaf_vector":"1"}},{"base_weights":[1.8821442E-2,7.1379775E-1,-3.5772642E-1,1.1271563E-1,9.0192133E-1,-1.0652336E-1,-7.8774583E-1,3.1839755E-1,-7.588825E-1,9.658899E-1,3.8373534E-2,-7.2737384E-1,1.12440124E-1,-8.704567E-1,3.6268896E-1,-1.938438E-2,1.0166371E-1,-1.6359468E-1,3.2968994E-2,1.0023879E-1,2.2385316E-2,1.06514335E-1,-7.68893E-2,-7.907926E-2,7.201978E-2,2.6569257E-2,-9.495311E-2,-1.0299984E-1,-5.853237E-2,1.405155E-1,-5.742049E-2],"categories":[],"categories_nodes":[],"categories_segments":[],"categories_sizes":[],"default_left":[0,0,0,0,0,0,0,0,0,0,0,0,0,0,0,0,0,0,0,0,0,0,0,0,0,0,0,0,0,0,0],"id":17,"left_children":[1,3,5,7,9,11,13,15,17,19,21,23,25,27,29,-1,-1,-1,-1,-1,-1,-1,-1,-1,-1,-1,-1,-1,-1,-1,-1],"loss_changes":[1.9425195E2,2.939383E1,5.192602E1,1.1593137E1,1.0929291E1,4.15562E1,1.7194885E1,1.8772507E1,1.2363974E1,4.780243E0,1.303081E1,7.8842735E0,3.709997E1,6.9387817E0,1.3116831E1,0E0,0E0,0E0,0E0,0E0,0E0,0E0,0E0,0E0,0E0,0E0,0E0,0E0,0E0,0E0,0E0],"parents":[2147483647,0,0,1,1,2,2,3,3,4,4,5,5,6,6,7,7,8,8,9,9,10,10,11,11,12,12,13,13,14,14],"right_children":[2,4,6,8,10,12,14,16,18,20,22,24,26,28,30,-1,-1,-1,-1,-1,-1,-1,-1,-1,-1,-1,-1,-1,-1,-1,-1],"split_conditions":[2.5E1,1.277E3,4.8E1,8.2E1,1.1092623E-3,1.127E3,1.05E2,3.7E1,9E1,5.033E3,1.5E1,1.05E2,4.811E3,2.483E3,1.3E1,-1.938438E-2,1.0166371E-1,-1.6359468E-1,3.2968994E-2,1.0023879E-1,2.2385316E-2,1.06514335E-1,-7.68893E-2,-7.907926E-2,7.201978E-2,2.6569257E-2,-9.495311E-2,-1.0299984E-1,-5.853237E-2,1.405155E-1,-5.742049E-2],"split_indices":[15,16,15,3,21,16,3,3,3,16,15,3,17,17,0,0,0,0,0,0,0,0,0,0,0,0,0,0,0,0,0],"split_type":[0,0,0,0,0,0,0,0,0,0,0,0,0,0,0,0,0,0,0,0,0,0,0,0,0,0,0,0,0,0,0],"sum_hessian":[7.4031696E2,2.598425E2,4.804745E2,6.2320045E1,1.9752245E2,3.0408554E2,1.7638895E2,5.093498E1,1.1385068E1,1.8378947E2,1.3732984E1,7.86784E1,2.2540714E2,1.6478503E2,1.1603907E1,2.9797424E1,2.1137554E1,6.026595E0,5.3584723E0,1.7483894E2,8.950527E0,5.904082E0,7.828902E0,7.58108E1,2.8675983E0,1.9763618E2,2.777095E1,1.0398789E2,6.079715E1,5.255925E0,6.3479815E0],"tree_param":{"num_deleted":"0","num_feature":"22","num_nodes":"31","size_leaf_vector":"1"}},{"base_weights":[3.1638257E-2,4.997755E-1,-4.6451882E-1,2.5489278E-2,7.4861133E-1,-5.357495E-1,1.0311182E0,-5.086425E-1,3.6448282E-1,8.671999E-1,-1.1663071E-1,-2.867429E-1,-8.5536706E-1,7.0113316E-3,1.1393605E0,1.291318E-1,-7.2893076E-2,4.9453665E-2,-8.148484E-2,9.74208E-2,-3.9244355E-3,6.349291E-2,-5.6461353E-2,-8.745024E-3,-9.879408E-2,-8.899545E-2,8.001935E-2,1.18845396E-1,3.7680794E-2],"categories":[],"categories_nodes":[],"categories_segments":[],"categories_sizes":[],"default_left":[0,0,0,0,0,0,0,0,0,0,0,0,0,0,0,0,0,0,0,0,0,0,0,0,0,0,0,0,0],"id":18,"left_children":[1,3,5,7,9,11,13,15,17,19,21,23,25,-1,27,-1,-1,-1,-1,-1,-1,-1,-1,-1,-1,-1,-1,-1,-1],"loss_changes":[1.6885889E2,4.4123405E1,3.8156E1,2.3677595E1,2.5269226E1,2.6621704E1,1.6248226E0,2.108025E1,1.2665796E1,2.097374E1,1.0609708E1,2.6640202E1,9.1482315E0,0E0,1.0112953E-1,0E0,0E0,0E0,0E0,0E0,0E0,0E0,0E0,0E0,0E0,0E0,0E0,0E0,0E0],"parents":[2147483647,0,0,1,1,2,2,3,3,4,4,5,5,6,6,7,7,8,8,9,9,10,10,11,11,12,12,14,14],"right_children":[2,4,6,8,10,12,14,16,18,20,22,24,26,-1,28,-1,-1,-1,-1,-1,-1,-1,-1,-1,-1,-1,-1,-1,-1],"split_conditions":[3.3E1,1.66E3,1E0,9E0,2E0,5E1,8.61E2,0E0,1.6E1,7.806401E-4,2E1,1.1463508E-3,1.16E2,7.0113316E-3,6.807352E-4,1.291318E-1,-7.2893076E-2,4.9453665E-2,-8.148484E-2,9.74208E-2,-3.9244355E-3,6.349291E-2,-5.6461353E-2,-8.745024E-3,-9.879408E-2,-8.899545E-2,8.001935E-2,1.18845396E-1,3.7680794E-2],"split_indices":[15,17,9,8,19,15,17,8,0,21,15,21,3,0,21,0,0,0,0,0,0,0,0,0,0,0,0,0,0],"split_type":[0,0,0,0,0,0,0,0,0,0,0,0,0,0,0,0,0,0,0,0,0,0,0,0,0,0,0,0,0],"sum_hessian":[7.2499567E2,3.730273E2,3.5196838E2,1.2874298E2,2.4428433E2,3.3658032E2,1.5388066E1,4.9790554E1,7.895243E1,2.148369E2,2.9447432E1,1.9025455E2,1.4632576E2,1.7245737E0,1.3663493E1,4.8990226E0,4.4891533E1,7.163352E1,7.318909E0,1.920859E2,2.2750994E1,1.084163E1,1.8605803E1,1.4902405E2,4.1230515E1,1.437843E2,2.541444E0,1.2312303E1,1.3511908E0],"tree_param":{"num_deleted":"0","num_feature":"22","num_nodes":"29","size_leaf_vector":"1"}},{"base_weights":[1.092175E-2,6.4712274E-1,-3.2029772E-1,-3.5148653E-1,7.3626155E-1,-9.8923944E-2,-7.5621164E-1,-5.192011E-1,8.1836246E-2,7.9667383E-1,-2.6067472E-1,-5.372931E-1,1.549164E-1,-8.114855E-1,8.0247587E-1,-7.582717E-2,5.2135484E-3,1.0841562E-1,5.924463E-2,-1.3318919E-1,1.26418695E-2,-6.0165204E-2,9.856374E-2,3.341075E-2,-9.9102765E-2,1.2042814E-1,-8.423873E-2,1.2528706E-1,-3.6128026E-2],"categories":[],"categories_nodes":[],"categories_segments":[],"categories_sizes":[],"default_left":[0,0,0,0,0,0,0,0,0,0,0,0,0,0,0,0,0,0,0,0,0,0,0,0,0,0,0,0,0],"id":19,"left_children":[1,3,5,7,9,11,13,15,-1,17,19,21,23,25,27,-1,-1,-1,-1,-1,-1,-1,-1,-1,-1,-1,-1,-1,-1],"loss_changes":[1.4690994E2,2.1505577E1,4.4170563E1,4.395388E0,1.3424629E1,3.4047867E1,1.3942497E1,2.5406642E0,0E0,1.1520416E1,5.680037E0,1.1585743E1,4.0183002E1,1.0326065E1,3.4854782E0,0E0,0E0,0E0,0E0,0E0,0E0,0E0,0E0,0E0,0E0,0E0,0E0,0E0,0E0],"parents":[2147483647,0,0,1,1,2,2,3,3,4,4,5,5,6,6,7,7,9,9,10,10,11,11,12,12,13,13,14,14],"right_children":[2,4,6,8,10,12,14,16,-1,18,20,22,24,26,28,-1,-1,-1,-1,-1,-1,-1,-1,-1,-1,-1,-1,-1,-1],"split_conditions":[2.5E1,6.49E2,6.255865E-4,8.8151656E-2,1.8E1,1.809E3,1.7295226E-1,6.1E1,8.1836246E-2,1.5E1,2.5E1,1E0,1.6E1,0E0,1.4609203E-3,-7.582717E-2,5.2135484E-3,1.0841562E-1,5.924463E-2,-1.3318919E-1,1.26418695E-2,-6.0165204E-2,9.856374E-2,3.341075E-2,-9.9102765E-2,1.2042814E-1,-8.423873E-2,1.2528706E-1,-3.6128026E-2],"split_indices":[15,16,21,18,0,16,18,3,0,15,3,9,0,8,21,0,0,0,0,0,0,0,0,0,0,0,0,0,0],"split_type":[0,0,0,0,0,0,0,0,0,0,0,0,0,0,0,0,0,0,0,0,0,0,0,0,0,0,0,0,0],"sum_hessian":[6.9519E2,2.3768832E2,4.5750168E2,1.92369E1,2.1845143E2,3.042293E2,1.5327235E2,1.7311266E1,1.9256356E0,2.0615947E2,1.2291964E1,1.1115453E2,1.9307478E2,1.4848615E2,4.7862134E0,1.1973764E1,5.3375006E0,8.3837074E1,1.2232239E2,2.6149023E0,9.677061E0,1.0722803E2,3.92651E0,1.6757893E2,2.5495848E1,1.6686115E0,1.4681752E2,3.3955135E0,1.3907E0],"tree_param":{"num_deleted":"0","num_feature":"22","num_nodes":"29","size_leaf_vector":"1"}},{"base_weights":[-8.4073935E-3,5.797453E-1,-3.5233933E-1,2.0271835E-1,8.209497E-1,-1.18789196E-1,-6.756974E-1,-7.169347E-1,3.1327105E-1,9.3597996E-1,1.4125891E-1,5.572254E-2,-8.3517253E-1,-7.1742535E-1,9.01602E-1,-9.734042E-2,-2.5781948E-2,5.4829117E-2,-1.1896244E-2,9.919459E-2,4.1771814E-2,5.8729865E-2,-7.9017416E-2,1.6658476E-2,-1.0898985E-1,-1.0278252E-2,-8.901502E-2,-9.238039E-2,-4.1001912E-2,1.4161716E-1,-3.9356716E-2],"categories":[],"categories_nodes":[],"categories_segments":[],"categories_sizes":[],"default_left":[0,0,0,0,0,0,0,0,0,0,0,0,0,0,0,0,0,0,0,0,0,0,0,0,0,0,0,0,0,0,0],"id":20,"left_children":[1,3,5,7,9,11,13,15,17,19,21,23,25,27,29,-1,-1,-1,-1,-1,-1,-1,-1,-1,-1,-1,-1,-1,-1,-1,-1],"loss_changes":[1.3588956E2,2.2376389E1,3.1931274E1,1.0192416E1,1.1661537E1,3.0967186E1,1.2332649E1,1.0236673E0,9.026502E0,3.3224335E0,1.0024288E1,2.555996E1,1.8617973E0,1.0630295E1,3.9024072E0,0E0,0E0,0E0,0E0,0E0,0E0,0E0,0E0,0E0,0E0,0E0,0E0,0E0,0E0,0E0,0E0],"parents":[2147483647,0,0,1,1,2,2,3,3,4,4,5,5,6,6,7,7,8,8,9,9,10,10,11,11,12,12,13,13,14,14],"right_children":[2,4,6,8,10,12,14,16,18,20,22,24,26,28,30,-1,-1,-1,-1,-1,-1,-1,-1,-1,-1,-1,-1,-1,-1,-1,-1],"split_conditions":[2.6E1,1.809E3,4.6E1,3.53E2,6.729475E-4,1.0968922E-3,1.16E2,1.1E1,2.1E1,1.5E1,3.137E3,5.568E3,1E1,2.445E3,1.5E1,-9.734042E-2,-2.5781948E-2,5.4829117E-2,-1.1896244E-2,9.919459E-2,4.1771814E-2,5.8729865E-2,-7.9017416E-2,1.6658476E-2,-1.0898985E-1,-1.0278252E-2,-8.901502E-2,-9.238039E-2,-4.1001912E-2,1.4161716E-1,-3.9356716E-2],"split_indices":[15,16,15,16,21,21,3,0,15,0,16,17,0,17,0,0,0,0,0,0,0,0,0,0,0,0,0,0,0,0,0],"split_type":[0,0,0,0,0,0,0,0,0,0,0,0,0,0,0,0,0,0,0,0,0,0,0,0,0,0,0,0,0,0,0],"sum_hessian":[6.697648E2,2.4688496E2,4.228798E2,9.7040794E1,1.4984416E2,2.4633098E2,1.7654881E2,9.82497E0,8.721582E1,1.2783278E2,2.2011383E1,1.9882036E2,4.751063E1,1.7252963E2,4.01917E0,5.5849495E0,4.2400208E0,5.6322727E1,3.0893097E1,1.1454893E2,1.3283856E1,1.5133703E1,6.8776793E0,1.8205719E2,1.6763159E1,3.5177786E0,4.399285E1,1.0202772E2,7.050192E1,2.8095229E0,1.2096468E0],"tree_param":{"num_deleted":"0","num_feature":"22","num_nodes":"31","size_leaf_vector":"1"}},{"base_weights":[1.3285507E-2,6.369041E-1,-2.3886032E-1,7.2366685E-1,-6.5743E-1,-3.2332116E-1,1.0728775E0,1.2015254E-1,8.5946614E-1,-9.198042E-1,8.063279E-2,-3.7875775E-1,1.389091E-1,1.1467543E0,1.6960646E-1,9.602224E-2,-1.2392297E-2,1.0654451E-1,6.7862205E-2,-1.10797204E-1,3.6215402E-2,-1.3621576E-2,-7.3957555E-2,1.1866193E-1,2.8968105E-2,-3.5341535E-2,6.1870273E-2],"categories":[],"categories_nodes":[],"categories_segments":[],"categories_sizes":[],"default_left":[0,0,0,0,0,0,0,0,0,0,0,0,0,0,0,0,0,0,0,0,0,0,0,0,0,0,0],"id":21,"left_children":[1,3,5,7,9,11,13,15,17,19,-1,21,-1,23,25,-1,-1,-1,-1,-1,-1,-1,-1,-1,-1,-1,-1],"loss_changes":[1.0150369E2,2.1346687E1,5.1277794E1,1.4210503E1,5.4268575E0,4.159905E1,1.6766777E0,6.935116E0,4.581665E0,3.0094051E0,0E0,3.66446E1,0E0,5.359688E-1,9.92277E-1,0E0,0E0,0E0,0E0,0E0,0E0,0E0,0E0,0E0,0E0,0E0,0E0],"parents":[2147483647,0,0,1,1,2,2,3,3,4,4,5,5,6,6,7,7,8,8,9,9,11,11,13,13,14,14],"right_children":[2,4,6,8,10,12,14,16,18,20,-1,22,-1,24,26,-1,-1,-1,-1,-1,-1,-1,-1,-1,-1,-1,-1],"split_conditions":[2.3E1,1.8E1,1E0,9.94E2,1E0,5.741228E-1,1.1299435E-3,1.2E1,1.5E1,2.3E1,8.063279E-2,3.9808918E-4,1.389091E-1,6.7E1,7.2115374E-1,9.602224E-2,-1.2392297E-2,1.0654451E-1,6.7862205E-2,-1.10797204E-1,3.6215402E-2,-1.3621576E-2,-7.3957555E-2,1.1866193E-1,2.8968105E-2,-3.5341535E-2,6.1870273E-2],"split_indices":[15,0,9,16,9,18,21,15,15,0,0,21,0,15,20,0,0,0,0,0,0,0,0,0,0,0,0],"split_type":[0,0,0,0,0,0,0,0,0,0,0,0,0,0,0,0,0,0,0,0,0,0,0,0,0,0,0],"sum_hessian":[6.4355444E2,1.8484973E2,4.587047E2,1.7365036E2,1.1199361E1,4.3166403E2,2.7040686E1,3.224281E1,1.4140756E2,9.812173E0,1.3871881E0,4.188822E2,1.278182E1,2.4747112E1,2.2935734E0,6.5983152E0,2.5644495E1,6.3822777E1,7.758478E1,8.674618E0,1.1375549E0,2.5132132E2,1.675609E2,2.3279799E1,1.4673133E0,1.1580036E0,1.1355699E0],"tree_param":{"num_deleted":"0","num_feature":"22","num_nodes":"27","size_leaf_vector":"1"}},{"base_weights":[7.5880676E-3,3.742991E-1,-3.8520592E-1,-4.1957664E-1,5.0242025E-1,-4.4741023E-1,9.4739175E-1,-5.129155E-1,1.1729794E-1,9.6723056E-1,3.488397E-1,-5.3029054E-1,5.3241193E-1,-6.9708996E-2,1.4028109E0,-6.533881E-2,3.595106E-2,9.051851E-3,1.0051539E-1,2.367436E-2,1.1302793E-1,-2.9571055E-2,-1.0458838E-1,8.521364E-2,-5.2189875E-2,1.4674108E-1,4.160602E-2],"categories":[],"categories_nodes":[],"categories_segments":[],"categories_sizes":[],"default_left":[0,0,0,0,0,0,0,0,0,0,0,0,0,0,0,0,0,0,0,0,0,0,0,0,0,0,0],"id":22,"left_children":[1,3,5,7,9,11,13,15,-1,17,19,21,23,-1,25,-1,-1,-1,-1,-1,-1,-1,-1,-1,-1,-1,-1],"loss_changes":[9.090616E1,3.3407753E1,2.5683731E1,7.4244013E0,1.9756409E1,2.398016E1,1.1396055E1,5.63375E0,0E0,2.214531E0,1.8402567E1,3.2293266E1,8.284677E0,0E0,1.0504532E-1,0E0,0E0,0E0,0E0,0E0,0E0,0E0,0E0,0E0,0E0,0E0,0E0],"parents":[2147483647,0,0,1,1,2,2,3,3,4,4,5,5,6,6,7,7,9,9,10,10,11,11,12,12,14,14],"right_children":[2,4,6,8,10,12,14,16,-1,18,20,22,24,-1,26,-1,-1,-1,-1,-1,-1,-1,-1,-1,-1,-1,-1],"split_conditions":[3.3E1,7.67E2,1.629393E-1,1E0,1.5E1,1.01E2,1.262E3,7.9139456E-2,1.1729794E-1,1.9E1,1E0,7.8E1,1.5E1,-6.9708996E-2,3.593E3,-6.533881E-2,3.595106E-2,9.051851E-3,1.0051539E-1,2.367436E-2,1.1302793E-1,-2.9571055E-2,-1.0458838E-1,8.521364E-2,-5.2189875E-2,1.4674108E-1,4.160602E-2],"split_indices":[15,17,18,9,15,3,16,18,0,3,9,3,0,0,16,0,0,0,0,0,0,0,0,0,0,0,0],"split_type":[0,0,0,0,0,0,0,0,0,0,0,0,0,0,0,0,0,0,0,0,0,0,0,0,0,0,0],"sum_hessian":[6.2910815E2,3.2538086E2,3.037273E2,4.4898983E1,2.8048187E2,2.9081653E2,1.2910765E1,4.3053566E1,1.8454171E0,6.8343376E1,2.1213852E2,2.6855872E2,2.2257807E1,2.6849551E0,1.022581E1,3.7298985E1,5.7545815E0,2.974136E0,6.536924E1,1.8666475E2,2.5473766E1,1.856616E2,8.289712E1,1.7225775E1,5.032033E0,9.140306E0,1.0855029E0],"tree_param":{"num_deleted":"0","num_feature":"22","num_nodes":"27","size_leaf_vector":"1"}},{"base_weights":[-8.7321885E-3,3.4291095E-1,-4.108678E-1,4.3009886E-1,-6.799987E-1,-4.7027808E-1,9.05399E-1,3.3131596E-1,1.1302405E-1,6.4750147E-1,-8.247129E-1,1.4110473E-1,-5.0897765E-1,1.0755253E0,-3.208552E-2,4.2634018E-2,-4.1414093E-2,6.573116E-3,9.038802E-2,-9.102244E-2,5.4208E-2,-8.226486E-2,-2.7885107E-2,1.13489546E-1,3.9260615E-2],"categories":[],"categories_nodes":[],"categories_segments":[],"categories_sizes":[],"default_left":[0,0,0,0,0,0,0,0,0,0,0,0,0,0,0,0,0,0,0,0,0,0,0,0,0],"id":23,"left_children":[1,3,5,7,9,11,13,15,-1,17,19,-1,21,23,-1,-1,-1,-1,-1,-1,-1,-1,-1,-1,-1],"loss_changes":[8.724822E1,2.965015E1,2.2933456E1,2.064629E1,5.5751476E0,2.081649E1,3.0095205E0,1.9144413E1,0E0,4.0887117E-1,3.3103218E0,0E0,1.9348495E1,1.8494606E-2,0E0,0E0,0E0,0E0,0E0,0E0,0E0,0E0,0E0,0E0,0E0],"parents":[2147483647,0,0,1,1,2,2,3,3,4,4,5,5,6,6,7,7,9,9,10,10,12,12,13,13],"right_children":[2,4,6,8,10,12,14,16,-1,18,20,-1,22,24,-1,-1,-1,-1,-1,-1,-1,-1,-1,-1,-1],"split_conditions":[3.4E1,1.7152658E-3,1E0,1E0,1.3E1,0E0,1.1299435E-3,1.6E1,1.1302405E-1,1.1E1,1.8579236E-1,1.4110473E-1,8E0,1E0,-3.208552E-2,4.2634018E-2,-4.1414093E-2,6.573116E-3,9.038802E-2,-9.102244E-2,5.4208E-2,-8.226486E-2,-2.7885107E-2,1.13489546E-1,3.9260615E-2],"split_indices":[15,21,9,9,15,8,21,0,0,8,18,0,8,12,0,0,0,0,0,0,0,0,0,0,0],"split_type":[0,0,0,0,0,0,0,0,0,0,0,0,0,0,0,0,0,0,0,0,0,0,0,0,0],"sum_hessian":[6.1499896E2,3.2817618E2,2.868228E2,3.02935E2,2.5241186E1,2.75051E2,1.1771823E1,2.667697E2,3.6165283E1,2.1396132E0,2.3101574E1,4.829109E0,2.702219E2,1.044556E1,1.3262621E0,2.369886E2,2.9781105E1,1.0387902E0,1.100823E0,2.205573E1,1.0458429E0,1.1326407E2,1.5695781E2,9.001202E0,1.4443586E0],"tree_param":{"num_deleted":"0","num_feature":"22","num_nodes":"25","size_leaf_vector":"1"}},{"base_weights":[6.219166E-3,2.2818056E-1,-5.073436E-1,3.3248186E-1,-8.623225E-1,-7.7566475E-1,-1.771136E-1,-3.8023317E-1,4.5380896E-1,6.463499E-2,-9.494883E-1,-8.663257E-1,4.9037746E-1,1.7809151E-1,-8.8934654E-1,-7.420355E-3,-7.234205E-2,5.280744E-2,-8.984646E-2,-9.901595E-2,-2.433191E-2,-8.9900434E-2,4.3178376E-2,1.4441781E-1,-4.5165654E-2,4.4134345E-2,-9.777751E-2,-9.157857E-2,-1.6209772E-2],"categories":[],"categories_nodes":[],"categories_segments":[],"categories_sizes":[],"default_left":[0,0,0,0,0,0,0,0,0,0,0,0,0,0,0,0,0,0,0,0,0,0,0,0,0,0,0,0,0],"id":24,"left_children":[1,3,5,7,9,11,13,15,17,-1,19,21,23,25,27,-1,-1,-1,-1,-1,-1,-1,-1,-1,-1,-1,-1,-1,-1],"loss_changes":[6.789861E1,4.758908E1,1.5790253E1,3.305735E1,5.42449E0,1.1774029E1,2.087235E1,5.8135967E0,3.3156517E1,0E0,7.6400185E-1,4.317642E0,7.1628747E0,1.7308481E1,3.786373E-1,0E0,0E0,0E0,0E0,0E0,0E0,0E0,0E0,0E0,0E0,0E0,0E0,0E0,0E0],"parents":[2147483647,0,0,1,1,2,2,3,3,4,4,5,5,6,6,7,7,8,8,10,10,11,11,12,12,13,13,14,14],"right_children":[2,4,6,8,10,12,14,16,18,-1,20,22,24,26,28,-1,-1,-1,-1,-1,-1,-1,-1,-1,-1,-1,-1,-1,-1],"split_conditions":[4.3E1,1.7452007E-3,2.379E3,8.42E2,1.3E1,1.01E2,4.182E3,2.5E1,5.66E3,6.463499E-2,7.593E3,1E0,8.06E2,1.6E1,1.9091E4,-7.420355E-3,-7.234205E-2,5.280744E-2,-8.984646E-2,-9.901595E-2,-2.433191E-2,-8.9900434E-2,4.3178376E-2,1.4441781E-1,-4.5165654E-2,4.4134345E-2,-9.777751E-2,-9.157857E-2,-1.6209772E-2],"split_indices":[15,21,17,16,15,3,17,15,16,0,16,1,17,0,16,0,0,0,0,0,0,0,0,0,0,0,0,0,0],"split_type":[0,0,0,0,0,0,0,0,0,0,0,0,0,0,0,0,0,0,0,0,0,0,0,0,0,0,0,0,0],"sum_hessian":[5.936328E2,4.1487842E2,1.7875443E2,3.7929575E2,3.5582672E1,9.78774E1,8.0877014E1,5.486527E1,3.2443048E2,1.5931486E0,3.3989525E1,9.1631424E1,6.2459774E0,5.4464443E1,2.6412575E1,2.9645645E1,2.5219625E1,3.0811844E2,1.6312044E1,3.175828E1,2.2312458E0,8.968124E1,1.9501895E0,2.8387387E0,3.4072387E0,4.486458E1,9.599865E0,2.5235876E1,1.1766992E0],"tree_param":{"num_deleted":"0","num_feature":"22","num_nodes":"29","size_leaf_vector":"1"}},{"base_weights":[-6.195019E-4,2.5403506E-1,-4.3989584E-1,-9.334132E-2,5.1583517E-1,-5.012833E-1,8.641407E-1,-2.0043066E-1,1.1296381E0,6.27078E-1,-6.113145E-1,-5.788678E-1,4.8477736E-1,-6.720703E-2,1.245209E0,-8.892384E-4,-8.543692E-2,1.2581076E-1,1.4517468E-3,6.935426E-2,-5.73609E-2,7.5794175E-2,-9.336183E-2,-3.9678194E-2,-1.0134431E-1,-3.4825966E-2,9.101033E-2,3.852803E-2,1.525517E-1],"categories":[],"categories_nodes":[],"categories_segments":[],"categories_sizes":[],"default_left":[0,0,0,0,0,0,0,0,0,0,0,0,0,0,0,0,0,0,0,0,0,0,0,0,0,0,0,0,0],"id":25,"left_children":[1,3,5,7,9,11,13,15,17,19,21,23,25,-1,27,-1,-1,-1,-1,-1,-1,-1,-1,-1,-1,-1,-1,-1,-1],"loss_changes":[6.442663E1,3.3204723E1,1.7352367E1,2.0857986E1,2.6470703E1,1.5771309E1,6.6143575E0,1.8241592E1,1.8203487E0,1.5549141E1,9.178938E0,1.4487843E1,5.7428493E0,0E0,1.4028587E0,0E0,0E0,0E0,0E0,0E0,0E0,0E0,0E0,0E0,0E0,0E0,0E0,0E0,0E0],"parents":[2147483647,0,0,1,1,2,2,3,3,4,4,5,5,6,6,7,7,8,8,9,9,10,10,11,11,12,12,14,14],"right_children":[2,4,6,8,10,12,14,16,18,20,22,24,26,-1,28,-1,-1,-1,-1,-1,-1,-1,-1,-1,-1,-1,-1,-1,-1],"split_conditions":[3.9E1,1.809E3,1.629393E-1,1.4685315E-1,3E0,1.01E2,8.7E2,8.2E1,3.3E1,5.568E3,1.8E1,8E1,1.1E1,-6.720703E-2,8E0,-8.892384E-4,-8.543692E-2,1.2581076E-1,1.4517468E-3,6.935426E-2,-5.73609E-2,7.5794175E-2,-9.336183E-2,-3.9678194E-2,-1.0134431E-1,-3.4825966E-2,9.101033E-2,3.852803E-2,1.525517E-1],"split_indices":[15,16,18,18,19,3,16,3,15,17,15,3,8,0,8,0,0,0,0,0,0,0,0,0,0,0,0,0,0],"split_type":[0,0,0,0,0,0,0,0,0,0,0,0,0,0,0,0,0,0,0,0,0,0,0,0,0,0,0,0,0],"sum_hessian":[5.739395E2,3.635856E2,2.103539E2,1.5653134E2,2.0705426E2,2.014846E2,8.869284E0,1.4469714E2,1.1834191E1,1.8885872E2,1.8195547E1,1.8717073E2,1.4313885E1,1.6110331E0,7.2582507E0,1.1270075E2,3.1996397E1,1.0496677E1,1.3375143E0,1.7935294E2,9.505789E0,3.2093785E0,1.4986168E1,1.3325166E2,5.3919056E1,4.899328E0,9.4145565E0,2.3680468E0,4.890204E0],"tree_param":{"num_deleted":"0","num_feature":"22","num_nodes":"29","size_leaf_vector":"1"}},{"base_weights":[9.69263E-3,-3.5530886E-1,2.2926705E-1,1.2860094E-1,-5.322654E-1,3.547048E-1,-5.960645E-1,-5.7243025E-1,1.02812685E-1,1.2111556E-2,5.885145E-1,-6.7069364E-1,1.1360293E-1,-4.155406E-2,-8.876121E-2,-1.0099916E-2,9.06371E-2,7.1738586E-2,-4.5933675E-2,-7.2374575E-2,4.6882387E-2],"categories":[],"categories_nodes":[],"categories_segments":[],"categories_sizes":[],"default_left":[0,0,0,0,0,0,0,0,0,0,0,0,0,0,0,0,0,0,0,0,0],"id":26,"left_children":[1,3,5,-1,7,9,11,13,-1,15,17,19,-1,-1,-1,-1,-1,-1,-1,-1,-1],"loss_changes":[4.4963737E1,6.189244E1,3.6474384E1,0E0,1.2555195E1,2.4398815E1,6.7837963E0,8.867664E0,0E0,1.26962E1,2.4781422E1,3.0772648E0,0E0,0E0,0E0,0E0,0E0,0E0,0E0,0E0,0E0],"parents":[2147483647,0,0,1,1,2,2,4,4,5,5,6,6,7,7,9,9,10,10,11,11],"right_children":[2,4,6,-1,8,10,12,14,-1,16,18,20,-1,-1,-1,-1,-1,-1,-1,-1,-1],"split_conditions":[8E0,0E0,1.6E1,1.2860094E-1,5.741228E-1,1.822E3,1E0,8E1,1.02812685E-1,9E1,4.617E3,1.19E2,1.1360293E-1,-4.155406E-2,-8.876121E-2,-1.0099916E-2,9.06371E-2,7.1738586E-2,-4.5933675E-2,-7.2374575E-2,4.6882387E-2],"split_indices":[8,8,0,0,18,17,1,3,0,3,16,3,0,0,0,0,0,0,0,0,0],"split_type":[0,0,0,0,0,0,0,0,0,0,0,0,0,0,0,0,0,0,0,0,0],"sum_hessian":[5.5901355E2,2.0974066E2,3.492729E2,1.9802252E1,1.8993842E2,3.036873E2,4.5585583E1,1.857893E2,4.149106E0,1.2361311E2,1.8007419E2,4.429008E1,1.2955018E0,1.2559143E2,6.0197876E1,1.105209E2,1.3092215E1,1.606338E2,1.9440382E1,4.266845E1,1.6216321E0],"tree_param":{"num_deleted":"0","num_feature":"22","num_nodes":"21","size_leaf_vector":"1"}},{"base_weights":[-6.852964E-3,4.9903005E-1,-2.0073104E-1,1.1304377E-1,8.046567E-1,-2.6801682E-1,9.8556036E-1,-5.6422753E-3,1.0945362E-1,8.665113E-1,-4.270005E-1,1.3789652E-1,-3.1681725E-1,1.034797E0,-4.0951534E-4,5.582375E-2,-2.2040935E-2,9.286865E-2,9.459813E-3,-9.680381E-2,2.0003706E-2,-7.060286E-2,-6.241395E-3,1.0857135E-1,2.1325403E-3],"categories":[],"categories_nodes":[],"categories_segments":[],"categories_sizes":[],"default_left":[0,0,0,0,0,0,0,0,0,0,0,0,0,0,0,0,0,0,0,0,0,0,0,0,0],"id":27,"left_children":[1,3,5,7,9,11,13,15,-1,17,19,-1,21,23,-1,-1,-1,-1,-1,-1,-1,-1,-1,-1,-1],"loss_changes":[5.5150867E1,1.8288223E1,3.2710175E1,8.161773E0,6.981758E0,3.1417234E1,1.077795E0,7.8074465E0,0E0,3.8940468E0,1.8288227E0,0E0,3.7104603E1,1.0600758E0,0E0,0E0,0E0,0E0,0E0,0E0,0E0,0E0,0E0,0E0,0E0],"parents":[2147483647,0,0,1,1,2,2,3,3,4,4,5,5,6,6,7,7,9,9,10,10,12,12,13,13],"right_children":[2,4,6,8,10,12,14,16,-1,18,20,-1,22,24,-1,-1,-1,-1,-1,-1,-1,-1,-1,-1,-1],"split_conditions":[2.3E1,1.809E3,1E0,1.3712047E-1,1.9E1,0E0,4.928E3,1.3E1,1.0945362E-1,4.777E3,2.1E1,1.3789652E-1,8E0,3E0,-4.0951534E-4,5.582375E-2,-2.2040935E-2,9.286865E-2,9.459813E-3,-9.680381E-2,2.0003706E-2,-7.060286E-2,-6.241395E-3,1.0857135E-1,2.1325403E-3],"split_indices":[15,16,9,18,0,8,17,15,0,16,0,0,8,12,0,0,0,0,0,0,0,0,0,0,0],"split_type":[0,0,0,0,0,0,0,0,0,0,0,0,0,0,0,0,0,0,0,0,0,0,0,0,0],"sum_hessian":[5.602857E2,1.547985E2,4.054872E2,6.901146E1,8.578704E1,3.844552E2,2.103201E1,6.2453568E1,6.5578876E0,8.196707E1,3.8199716E0,1.0279275E1,3.7417593E2,1.9991781E1,1.0402292E0,1.6784887E1,4.5668682E1,7.5669075E1,6.2979965E0,1.7586757E0,2.0612957E0,1.4719984E2,2.2697609E2,1.8967573E1,1.0242069E0],"tree_param":{"num_deleted":"0","num_feature":"22","num_nodes":"25","size_leaf_vector":"1"}},{"base_weights":[-9.0738665E-3,-9.035322E-2,1.0287949E0,6.347319E-2,-5.985035E-1,1.07178465E-1,-1.649173E-2,2.0307548E-1,-6.2400466E-1,-3.9177418E-1,-9.7396445E-1,-8.828257E-3,5.514738E-2,-7.074952E-2,1.3113125E-1,-6.491782E-2,1.7360728E-2,6.675787E-3,-1.0154247E-1],"categories":[],"categories_nodes":[],"categories_segments":[],"categories_sizes":[],"default_left":[0,0,0,0,0,0,0,0,0,0,0,0,0,0,0,0,0,0,0],"id":28,"left_children":[1,3,5,7,9,-1,-1,11,13,15,17,-1,-1,-1,-1,-1,-1,-1,-1],"loss_changes":[4.5649384E1,3.925742E1,2.1936188E0,3.7177494E1,8.675552E0,0E0,0E0,3.269846E1,1.1496254E1,1.1307827E1,1.8265839E0,0E0,0E0,0E0,0E0,0E0,0E0,0E0,0E0],"parents":[2147483647,0,0,1,1,2,2,3,3,4,4,7,7,8,8,9,9,10,10],"right_children":[2,4,6,8,10,-1,-1,12,14,16,18,-1,-1,-1,-1,-1,-1,-1,-1],"split_conditions":[1E0,4.8E1,3E0,1.5E1,6.7E1,1.07178465E-1,-1.649173E-2,2.177E3,1E0,5.8017213E-2,3.92E2,-8.828257E-3,5.514738E-2,-7.074952E-2,1.3113125E-1,-6.491782E-2,1.7360728E-2,6.675787E-3,-1.0154247E-1],"split_indices":[9,15,12,0,15,0,0,16,1,18,16,0,0,0,0,0,0,0,0],"split_type":[0,0,0,0,0,0,0,0,0,0,0,0,0,0,0,0,0,0,0],"sum_hessian":[5.3904126E2,5.0073944E2,3.830182E1,3.850522E2,1.1568727E2,3.706898E1,1.2328396E0,3.2064517E2,6.440702E1,7.592584E1,3.9761425E1,1.7502342E2,1.4562173E2,6.235157E1,2.0554473E0,5.207101E1,2.3854834E1,1.4999509E0,3.8261475E1],"tree_param":{"num_deleted":"0","num_feature":"22","num_nodes":"19","size_leaf_vector":"1"}},{"base_weights":[-9.105709E-3,4.6252587E-1,-1.9113863E-1,1.2685929E-1,7.43337E-1,-2.5056517E-1,9.44972E-1,3.0248135E-1,-5.750375E-1,8.7015563E-1,5.8237817E-2,-3.2083705E-1,5.80064E-1,1.0177948E0,-1.8765962E-2,-8.439961E-3,9.274967E-2,-1.8321015E-1,4.9391095E-2,9.179788E-2,-2.909932E-2,5.251305E-2,-9.959894E-2,-9.326323E-3,-9.628858E-2,7.074465E-2,-7.868146E-2,1.0797136E-1,3.156796E-2],"categories":[],"categories_nodes":[],"categories_segments":[],"categories_sizes":[],"default_left":[0,0,0,0,0,0,0,0,0,0,0,0,0,0,0,0,0,0,0,0,0,0,0,0,0,0,0,0,0],"id":29,"left_children":[1,3,5,7,9,11,13,15,17,19,21,23,25,27,-1,-1,-1,-1,-1,-1,-1,-1,-1,-1,-1,-1,-1,-1,-1],"loss_changes":[4.5296898E1,1.3755707E1,2.5936272E1,8.573004E0,6.8825607E0,2.1346188E1,1.7689037E0,1.3415161E1,1.969188E1,4.002239E0,7.185647E0,4.8841293E1,5.542123E0,4.4735909E-1,0E0,0E0,0E0,0E0,0E0,0E0,0E0,0E0,0E0,0E0,0E0,0E0,0E0,0E0,0E0],"parents":[2147483647,0,0,1,1,2,2,3,3,4,4,5,5,6,6,7,7,8,8,9,9,10,10,11,11,12,12,13,13],"right_children":[2,4,6,8,10,12,14,16,18,20,22,24,26,28,-1,-1,-1,-1,-1,-1,-1,-1,-1,-1,-1,-1,-1,-1,-1],"split_conditions":[2.3E1,1.809E3,1E0,8.2E1,6.729475E-4,1.02E2,3E0,3.7E1,9E1,2E1,3.516E3,8E1,7E1,8.101539E-4,-1.8765962E-2,-8.439961E-3,9.274967E-2,-1.8321015E-1,4.9391095E-2,9.179788E-2,-2.909932E-2,5.251305E-2,-9.959894E-2,-9.326323E-3,-9.628858E-2,7.074465E-2,-7.868146E-2,1.0797136E-1,3.156796E-2],"split_indices":[15,16,9,3,21,3,12,3,3,0,16,3,15,21,0,0,0,0,0,0,0,0,0,0,0,0,0,0,0],"split_type":[0,0,0,0,0,0,0,0,0,0,0,0,0,0,0,0,0,0,0,0,0,0,0,0,0,0,0,0,0],"sum_hessian":[5.255835E2,1.4593573E2,3.796478E2,6.713632E1,7.879941E1,3.6151733E2,1.813044E1,5.415517E1,1.2981151E1,6.62633E1,1.2536111E1,3.3388422E2,2.7633118E1,1.7130424E1,1.0000153E0,3.3984142E1,2.0171028E1,5.637557E0,7.343594E0,6.384327E1,2.420029E0,9.036109E0,3.5000017E0,2.4735474E2,8.652949E1,2.5718765E1,1.9143522E0,1.5247926E1,1.8824989E0],"tree_param":{"num_deleted":"0","num_feature":"22","num_nodes":"29","size_leaf_vector":"1"}},{"base_weights":[1.6266877E-2,2.1093413E-1,-3.5457364E-1,-2.0435363E-1,4.7921655E-1,-5.5540204E-1,2.0489211E-1,-2.9766217E-1,8.0401003E-1,6.117576E-1,-3.6303762E-1,1.1532239E-1,-6.2309104E-1,4.1719374E-1,-1.0261654E-1,-7.655079E-3,-1.4441912E-1,3.2005948E-3,1.0640005E-1,6.6967875E-2,-8.741443E-2,-7.5939684E-3,-1.1987614E-1,-9.8241046E-2,-3.903338E-2,6.1045494E-2,-6.106561E-2],"categories":[],"categories_nodes":[],"categories_segments":[],"categories_sizes":[],"default_left":[0,0,0,0,0,0,0,0,0,0,0,0,0,0,0,0,0,0,0,0,0,0,0,0,0,0,0],"id":30,"left_children":[1,3,5,7,9,11,13,15,17,19,21,-1,23,25,-1,-1,-1,-1,-1,-1,-1,-1,-1,-1,-1,-1,-1],"loss_changes":[3.8072655E1,3.862422E1,2.0513569E1,1.307448E1,2.3707226E1,1.6201687E1,1.3153381E1,3.1728092E1,2.3392186E0,1.6261772E1,6.9227867E0,0E0,1.0440552E1,8.763239E0,0E0,0E0,0E0,0E0,0E0,0E0,0E0,0E0,0E0,0E0,0E0,0E0,0E0],"parents":[2147483647,0,0,1,1,2,2,3,3,4,4,5,5,6,6,7,7,8,8,9,9,10,10,12,12,13,13],"right_children":[2,4,6,8,10,12,14,16,18,20,22,-1,24,26,-1,-1,-1,-1,-1,-1,-1,-1,-1,-1,-1,-1,-1],"split_conditions":[4.194631E-4,1.795E3,6.155015E-2,9E1,4.617E3,0E0,7E0,8.2E1,7.6E2,7.4E1,2.3020258E-4,1.1532239E-1,8E0,4.145E3,-1.0261654E-1,-7.655079E-3,-1.4441912E-1,3.2005948E-3,1.0640005E-1,6.6967875E-2,-8.741443E-2,-7.5939684E-3,-1.1987614E-1,-9.8241046E-2,-3.903338E-2,6.1045494E-2,-6.106561E-2],"split_indices":[21,16,18,3,16,8,12,3,16,15,21,0,8,16,0,0,0,0,0,0,0,0,0,0,0,0,0],"split_type":[0,0,0,0,0,0,0,0,0,0,0,0,0,0,0,0,0,0,0,0,0,0,0,0,0,0,0],"sum_hessian":[5.2535547E2,3.447928E2,1.8056268E2,1.3541516E2,2.0937761E2,1.3287317E2,4.768951E1,1.2459099E2,1.0824171E1,1.8114539E2,2.823222E1,4.452204E0,1.2842096E2,4.1238796E1,6.450714E0,1.0534222E2,1.924878E1,3.0098777E0,7.8142934E0,1.7487788E2,6.2675133E0,2.1825373E1,6.406848E0,4.921873E1,7.920223E1,3.5053886E1,6.1849127E0],"tree_param":{"num_deleted":"0","num_feature":"22","num_nodes":"27","size_leaf_vector":"1"}},{"base_weights":[6.5504126E-3,1.19584344E-1,-6.100573E-1,5.0579842E-2,1.0410745E0,-3.0688506E-1,-8.829452E-1,1.9915053E-1,-4.2951643E-1,1.1152899E0,-1.2361868E-2,-5.877137E-1,4.4199792E-1,1.2797574E-2,-9.302991E-1,-5.0828992E-3,5.8137566E-2,9.974444E-2,-4.856867E-2,1.2116364E-2,1.2159961E-1,-7.025879E-2,8.5230246E-2,8.224149E-2,-3.5341106E-2,-9.5343105E-2,-3.577501E-3],"categories":[],"categories_nodes":[],"categories_segments":[],"categories_sizes":[],"default_left":[0,0,0,0,0,0,0,0,0,0,0,0,0,0,0,0,0,0,0,0,0,0,0,0,0,0,0],"id":31,"left_children":[1,3,5,7,9,11,13,15,17,19,-1,21,23,-1,25,-1,-1,-1,-1,-1,-1,-1,-1,-1,-1,-1,-1],"loss_changes":[3.5665802E1,2.74423E1,6.2877235E0,2.8854107E1,2.7373047E0,8.480072E0,2.090828E0,2.9524689E1,8.149738E0,2.6930237E0,0E0,5.3722343E0,3.6889389E0,0E0,7.825432E-1,0E0,0E0,0E0,0E0,0E0,0E0,0E0,0E0,0E0,0E0,0E0,0E0],"parents":[2147483647,0,0,1,1,2,2,3,3,4,4,5,5,6,6,7,7,8,8,9,9,11,11,12,12,14,14],"right_children":[2,4,6,8,10,12,14,16,18,20,-1,22,24,-1,26,-1,-1,-1,-1,-1,-1,-1,-1,-1,-1,-1,-1],"split_conditions":[1.2239902E-3,1.629393E-1,1E0,1.4E1,5.486E3,6.155015E-2,1.2944983E-3,1.2E1,0E0,7.25E2,-1.2361868E-2,1E0,2.8051345E-3,1.2797574E-2,1E0,-5.0828992E-3,5.8137566E-2,9.974444E-2,-4.856867E-2,1.2116364E-2,1.2159961E-1,-7.025879E-2,8.5230246E-2,8.224149E-2,-3.5341106E-2,-9.5343105E-2,-3.577501E-3],"split_indices":[21,18,12,0,16,18,21,0,8,16,0,7,21,0,14,0,0,0,0,0,0,0,0,0,0,0,0],"split_type":[0,0,0,0,0,0,0,0,0,0,0,0,0,0,0,0,0,0,0,0,0,0,0,0,0,0,0],"sum_hessian":[5.096755E2,4.3139926E2,7.827624E1,4.023265E2,2.9072765E1,3.8087017E1,4.018922E1,3.0769296E2,9.463354E1,2.7371073E1,1.7016934E0,2.7856234E1,1.0230782E1,1.72214E0,3.8467083E1,1.8655252E2,1.2114043E2,2.9493806E0,9.168416E1,2.7203302E0,2.4650742E1,2.62725E1,1.5837344E0,6.8978324E0,3.3329496E0,3.7433228E1,1.0338552E0],"tree_param":{"num_deleted":"0","num_feature":"22","num_nodes":"27","size_leaf_vector":"1"}},{"base_weights":[2.1131044E-2,5.5176073E-1,-1.3444223E-1,6.7716315E-2,6.966607E-1,-1.8274078E-1,1.1375607E0,3.2525495E-1,-5.15097E-1,7.6190406E-1,-1.00578584E-1,-2.6273787E-1,5.394863E-1,1.2035455E-1,4.0949624E-2,-1.1047684E-2,6.948408E-2,-6.5653436E-2,2.702682E-2,8.7966464E-2,3.9444286E-2,4.82072E-2,-9.064712E-2,-5.20074E-3,-9.804946E-2,7.584138E-2,-3.6190607E-2],"categories":[],"categories_nodes":[],"categories_segments":[],"categories_sizes":[],"default_left":[0,0,0,0,0,0,0,0,0,0,0,0,0,0,0,0,0,0,0,0,0,0,0,0,0,0,0],"id":32,"left_children":[1,3,5,7,9,11,13,15,17,19,21,23,25,-1,-1,-1,-1,-1,-1,-1,-1,-1,-1,-1,-1,-1,-1],"loss_changes":[4.117114E1,7.8828125E0,2.3907993E1,4.2435255E0,4.5970535E0,2.1664452E1,1.9176292E-1,3.2084131E0,1.1448715E0,3.134262E0,3.9387012E0,5.0776833E1,7.6697416E0,0E0,0E0,0E0,0E0,0E0,0E0,0E0,0E0,0E0,0E0,0E0,0E0,0E0,0E0],"parents":[2147483647,0,0,1,1,2,2,3,3,4,4,5,5,6,6,7,7,8,8,9,9,10,10,11,11,12,12],"right_children":[2,4,6,8,10,12,14,16,18,20,22,24,26,-1,-1,-1,-1,-1,-1,-1,-1,-1,-1,-1,-1,-1,-1],"split_conditions":[2.1E1,1.014E3,2.4234265E-1,1.3E1,1.8E1,9E1,8.3E1,3.7E1,1.257071E-3,1.8E1,3.7608124E-4,8E1,5.7E1,1.2035455E-1,4.0949624E-2,-1.1047684E-2,6.948408E-2,-6.5653436E-2,2.702682E-2,8.7966464E-2,3.9444286E-2,4.82072E-2,-9.064712E-2,-5.20074E-3,-9.804946E-2,7.584138E-2,-3.6190607E-2],"split_indices":[15,16,18,0,0,3,3,3,21,15,21,3,15,0,0,0,0,0,0,0,0,0,0,0,0,0,0],"split_type":[0,0,0,0,0,0,0,0,0,0,0,0,0,0,0,0,0,0,0,0,0,0,0,0,0,0,0],"sum_hessian":[4.9683243E2,1.1206257E2,3.8476987E2,2.6155695E1,8.590687E1,3.7151944E2,1.3250431E1,1.8446373E1,7.7093215E0,7.9449326E1,6.4575424E0,3.3504462E2,3.647483E1,1.1550526E1,1.6999048E0,8.787374E0,9.659E0,6.6718245E0,1.0374973E0,5.9111816E1,2.0337511E1,3.9810832E0,2.476459E0,2.5983157E2,7.521304E1,2.9474718E1,7.000112E0],"tree_param":{"num_deleted":"0","num_feature":"22","num_nodes":"27","size_leaf_vector":"1"}},{"base_weights":[-1.9781312E-2,1.3119796E-1,-4.8700038E-1,2.3714465E-1,-5.066862E-1,-3.261375E-1,-8.573512E-1,3.3329016E-1,-4.9591962E-1,7.280498E-1,-6.2063396E-1,-6.309506E-1,4.849888E-3,-9.072651E-1,8.185851E-3,-1.4978468E-4,5.6009706E-2,-6.4586096E-2,5.5216398E-2,1.8977445E-2,8.3487645E-2,7.838655E-2,-6.739535E-2,-7.274923E-2,4.380895E-2,-7.216911E-2,4.1977268E-2,1.2306472E-2,-9.540685E-2],"categories":[],"categories_nodes":[],"categories_segments":[],"categories_sizes":[],"default_left":[0,0,0,0,0,0,0,0,0,0,0,0,0,0,0,0,0,0,0,0,0,0,0,0,0,0,0,0,0],"id":33,"left_children":[1,3,5,7,9,11,13,15,17,19,21,23,25,27,-1,-1,-1,-1,-1,-1,-1,-1,-1,-1,-1,-1,-1,-1,-1],"loss_changes":[3.4641323E1,2.5210081E1,6.8650684E0,2.2652567E1,7.9365396E0,8.601233E0,1.7479763E0,2.1463797E1,6.2334185E0,1.2647104E-1,4.2159653E0,4.898384E0,1.2918999E1,1.7561874E0,0E0,0E0,0E0,0E0,0E0,0E0,0E0,0E0,0E0,0E0,0E0,0E0,0E0,0E0,0E0],"parents":[2147483647,0,0,1,1,2,2,3,3,4,4,5,5,6,6,7,7,8,8,9,9,10,10,11,11,12,12,13,13],"right_children":[2,4,6,8,10,12,14,16,18,20,22,24,26,28,-1,-1,-1,-1,-1,-1,-1,-1,-1,-1,-1,-1,-1,-1,-1],"split_conditions":[4.6E1,1.0968922E-3,6.7E1,2E0,1.3E1,2.254E3,1E0,1.723E3,9.999998E-1,1.3186813E-3,0E0,6.4E1,8E0,3.92E2,8.185851E-3,-1.4978468E-4,5.6009706E-2,-6.4586096E-2,5.5216398E-2,1.8977445E-2,8.3487645E-2,7.838655E-2,-6.739535E-2,-7.274923E-2,4.380895E-2,-7.216911E-2,4.1977268E-2,1.2306472E-2,-9.540685E-2],"split_indices":[15,21,15,19,15,16,9,16,20,21,8,15,8,16,0,0,0,0,0,0,0,0,0,0,0,0,0,0,0],"split_type":[0,0,0,0,0,0,0,0,0,0,0,0,0,0,0,0,0,0,0,0,0,0,0,0,0,0,0,0,0],"sum_hessian":[4.8917914E2,3.7025308E2,1.1892606E2,3.1805527E2,5.219782E1,8.422383E1,3.470223E1,2.816594E2,3.6395866E1,3.95476E0,4.8243057E1,4.3373768E1,4.0850063E1,3.2983353E1,1.7188766E0,1.14152756E2,1.6750664E2,3.2176403E1,4.219461E0,1.1146681E0,2.840092E0,1.2633597E0,4.69797E1,4.0074276E1,3.2994928E0,1.4580273E1,2.626979E1,1.3623862E0,3.1620968E1],"tree_param":{"num_deleted":"0","num_feature":"22","num_nodes":"29","size_leaf_vector":"1"}},{"base_weights":[-9.998032E-3,-8.09802E-2,1.019687E0,-1.2974158E-1,1.1323787E0,1.0684446E-1,-7.6123364E-3,-1.05339745E-2,-5.191231E-1,3.1901814E-2,1.1639605E-1,1.22959E-2,-4.3420155E-2,-8.171161E-2,-1.8466225E-2],"categories":[],"categories_nodes":[],"categories_segments":[],"categories_sizes":[],"default_left":[0,0,0,0,0,0,0,0,0,0,0,0,0,0,0],"id":34,"left_children":[1,3,5,7,9,-1,-1,11,13,-1,-1,-1,-1,-1,-1],"loss_changes":[3.495488E1,2.6610043E1,1.729248E0,1.9995401E1,7.5201035E-2,0E0,0E0,1.8768959E1,9.913067E0,0E0,0E0,0E0,0E0,0E0,0E0],"parents":[2147483647,0,0,1,1,2,2,3,3,4,4,7,7,8,8],"right_children":[2,4,6,8,10,-1,-1,12,14,-1,-1,-1,-1,-1,-1],"split_conditions":[1E0,2.4234265E-1,3E0,7.570023E-4,6.29E2,1.0684446E-1,-7.6123364E-3,1.4E1,8.380951E-1,3.1901814E-2,1.1639605E-1,1.22959E-2,-4.3420155E-2,-8.171161E-2,-1.8466225E-2],"split_indices":[9,18,12,21,16,0,0,0,20,0,0,0,0,0,0],"split_type":[0,0,0,0,0,0,0,0,0,0,0,0,0,0,0],"sum_hessian":[4.761193E2,4.4627625E2,2.9843056E1,4.2989316E2,1.6383091E1,2.8595678E1,1.2473782E0,3.2991733E2,9.997583E1,1.027296E0,1.5355794E1,2.5141045E2,7.850688E1,5.2107113E1,4.786872E1],"tree_param":{"num_deleted":"0","num_feature":"22","num_nodes":"15","size_leaf_vector":"1"}},{"base_weights":[-1.7572187E-2,-3.470237E-1,2.0142512E-1,1.1855566E-1,-4.83932E-1,3.0003947E-1,-4.5335695E-1,-5.350973E-1,8.7627316E-1,5.7605997E-2,5.776099E-1,-5.249725E-1,8.459543E-2,-5.8989394E-2,6.656665E-2,1.49608E-1,1.8094247E-2,1.8167026E-2,-7.315911E-2,9.802349E-2,1.12006925E-2,-5.8549374E-2,5.3699624E-2],"categories":[],"categories_nodes":[],"categories_segments":[],"categories_sizes":[],"default_left":[0,0,0,0,0,0,0,0,0,0,0,0,0,0,0,0,0,0,0,0,0,0,0],"id":35,"left_children":[1,3,5,-1,7,9,11,13,15,17,19,21,-1,-1,-1,-1,-1,-1,-1,-1,-1,-1,-1],"loss_changes":[3.4463066E1,4.0589825E1,1.8666765E1,0E0,1.2702633E1,1.6791191E1,3.9765267E0,1.1580437E1,2.6390777E0,1.33086195E1,2.172078E1,2.6665115E0,0E0,0E0,0E0,0E0,0E0,0E0,0E0,0E0,0E0,0E0,0E0],"parents":[2147483647,0,0,1,1,2,2,4,4,5,5,6,6,7,7,8,8,9,9,10,10,11,11],"right_children":[2,4,6,-1,8,10,12,14,16,18,20,22,-1,-1,-1,-1,-1,-1,-1,-1,-1,-1,-1],"split_conditions":[9E0,0E0,1.6E1,1.1855566E-1,1E0,1.2E1,1E0,1E0,2.05E3,1E0,1.3E1,1E0,8.459543E-2,-5.8989394E-2,6.656665E-2,1.49608E-1,1.8094247E-2,1.8167026E-2,-7.315911E-2,9.802349E-2,1.12006925E-2,-5.8549374E-2,5.3699624E-2],"split_indices":[8,8,0,0,1,0,1,9,16,12,0,9,0,0,0,0,0,0,0,0,0,0,0],"split_type":[0,0,0,0,0,0,0,0,0,0,0,0,0,0,0,0,0,0,0,0,0,0,0],"sum_hessian":[4.7569638E2,1.8971361E2,2.859828E2,1.4929553E1,1.7478406E2,2.4902048E2,3.6962296E1,1.6903236E2,5.7516937E0,1.3356802E2,1.1545245E2,3.559626E1,1.3660359E0,1.6214178E2,6.8905807E0,2.4321256E0,3.3195684E0,1.1608837E2,1.7479654E1,6.132073E1,5.413172E1,3.4101498E1,1.4947625E0],"tree_param":{"num_deleted":"0","num_feature":"22","num_nodes":"23","size_leaf_vector":"1"}},{"base_weights":[-1.103932E-2,1.1811618E-1,-5.0443E-1,2.0763351E-1,-4.821674E-1,-6.775999E-1,-6.057238E-2,3.067478E-1,-3.0764997E-1,7.9125124E-1,-6.57438E-1,5.324012E-2,-7.434093E-1,-4.623066E-1,4.5563656E-1,4.680137E-2,-1.4078096E-2,1.4523401E-2,-6.4791724E-2,1.0165324E-1,1.049083E-2,-9.05398E-2,-2.4435788E-2,8.169257E-2,-9.07148E-2,-7.7464305E-2,4.2208664E-2,7.095551E-2,-6.0955264E-2,1.072674E-1,-4.266556E-2],"categories":[],"categories_nodes":[],"categories_segments":[],"categories_sizes":[],"default_left":[0,0,0,0,0,0,0,0,0,0,0,0,0,0,0,0,0,0,0,0,0,0,0,0,0,0,0,0,0,0,0],"id":36,"left_children":[1,3,5,7,9,11,13,15,17,19,21,23,25,27,29,-1,-1,-1,-1,-1,-1,-1,-1,-1,-1,-1,-1,-1,-1,-1,-1],"loss_changes":[2.9207975E1,1.9623873E1,7.267584E0,1.6277931E1,1.111096E1,3.3246498E0,5.9725423E0,1.9282156E1,8.048478E0,8.511865E-1,4.1069736E0,5.5637393E0,2.6103973E0,3.2142296E0,7.351697E0,0E0,0E0,0E0,0E0,0E0,0E0,0E0,0E0,0E0,0E0,0E0,0E0,0E0,0E0,0E0,0E0],"parents":[2147483647,0,0,1,1,2,2,3,3,4,4,5,5,6,6,7,7,8,8,9,9,10,10,11,11,12,12,13,13,14,14],"right_children":[2,4,6,8,10,12,14,16,18,20,22,24,26,28,30,-1,-1,-1,-1,-1,-1,-1,-1,-1,-1,-1,-1,-1,-1,-1,-1],"split_conditions":[4.8E1,1.1947431E-3,6.395349E-2,1.5E1,1.5E1,9E0,1.3E1,8E1,2.6E1,2.980626E-3,4.6015713E-2,4.2274054E-2,1E0,1E0,1.3E1,4.680137E-2,-1.4078096E-2,1.4523401E-2,-6.4791724E-2,1.0165324E-1,1.049083E-2,-9.05398E-2,-2.4435788E-2,8.169257E-2,-9.07148E-2,-7.7464305E-2,4.2208664E-2,7.095551E-2,-6.0955264E-2,1.072674E-1,-4.266556E-2],"split_indices":[15,21,18,0,15,0,8,3,15,21,18,18,9,8,0,0,0,0,0,0,0,0,0,0,0,0,0,0,0,0,0],"split_type":[0,0,0,0,0,0,0,0,0,0,0,0,0,0,0,0,0,0,0,0,0,0,0,0,0,0,0,0,0,0,0],"sum_hessian":[4.5641544E2,3.6232877E2,9.4086655E1,3.158776E2,4.6451168E1,6.730224E1,2.6784418E1,2.6525983E2,5.0617764E1,5.1947255E0,4.1256443E1,5.575457E0,6.172678E1,1.5121044E1,1.1663374E1,1.9496051E2,7.0299324E1,2.196126E1,2.8656506E1,3.5488026E0,1.6459229E0,2.503615E1,1.6220293E1,3.1889966E0,2.3864603E0,6.044236E1,1.2844223E0,1.2616142E0,1.3859429E1,6.736425E0,4.926949E0],"tree_param":{"num_deleted":"0","num_feature":"22","num_nodes":"31","size_leaf_vector":"1"}},{"base_weights":[1.6381702E-3,-2.885646E-1,1.9248693E-1,1.1488036E-1,-4.0615588E-1,2.9188517E-1,-5.0024235E-1,5.5970657E-1,-4.803391E-1,3.8398218E-1,-3.53819E-1,-5.7051325E-1,6.0471583E-2,-4.1717347E-2,9.1592066E-2,-5.354966E-2,6.450121E-2,-5.4878295E-5,5.4164786E-2,9.200039E-3,-7.058032E-2,-8.787055E-2,-2.0776324E-2],"categories":[],"categories_nodes":[],"categories_segments":[],"categories_sizes":[],"default_left":[0,0,0,0,0,0,0,0,0,0,0,0,0,0,0,0,0,0,0,0,0,0,0],"id":37,"left_children":[1,3,5,-1,7,9,11,13,15,17,19,21,-1,-1,-1,-1,-1,-1,-1,-1,-1,-1,-1],"loss_changes":[2.5042019E1,3.0786299E1,1.8927177E1,0E0,1.2202747E1,1.4358364E1,3.0311813E0,4.676775E0,9.979813E0,1.2719315E1,4.8313384E0,3.511322E0,0E0,0E0,0E0,0E0,0E0,0E0,0E0,0E0,0E0,0E0,0E0],"parents":[2147483647,0,0,1,1,2,2,4,4,5,5,6,6,7,7,8,8,9,9,10,10,11,11],"right_children":[2,4,6,-1,8,10,12,14,16,18,20,22,-1,-1,-1,-1,-1,-1,-1,-1,-1,-1,-1],"split_conditions":[9E0,0E0,5.7E1,1.1488036E-1,1.5E1,1.6E1,1E0,9.2E2,1.629393E-1,1.269E3,2.6E1,2.483E3,6.0471583E-2,-4.1717347E-2,9.1592066E-2,-5.354966E-2,6.450121E-2,-5.4878295E-5,5.4164786E-2,9.200039E-3,-7.058032E-2,-8.787055E-2,-2.0776324E-2],"split_indices":[8,8,15,0,15,0,7,16,18,17,15,17,0,0,0,0,0,0,0,0,0,0,0],"split_type":[0,0,0,0,0,0,0,0,0,0,0,0,0,0,0,0,0,0,0,0,0,0,0],"sum_hessian":[4.501429E2,1.7838318E2,2.7175974E2,1.2826765E1,1.6555641E2,2.3816463E2,3.359509E1,1.1341793E1,1.5421461E2,2.0879015E2,2.9374481E1,3.2041084E1,1.5540044E0,2.9848962E0,8.356897E0,1.4750883E2,6.7057858E0,6.100399E1,1.4778616E2,1.3285645E1,1.6088837E1,1.6554253E1,1.5486832E1],"tree_param":{"num_deleted":"0","num_feature":"22","num_nodes":"23","size_leaf_vector":"1"}},{"base_weights":[-2.4718791E-3,5.303225E-1,-1.0366306E-1,1.867233E-1,7.939837E-1,-3.8836423E-1,7.699628E-2,7.42824E-1,6.5022837E-3,9.0240693E-1,-9.820473E-2,1.193435E-1,-5.123788E-1,1.5022282E-1,-7.8759533E-1,9.539052E-3,8.503631E-2,8.1653915E-2,-1.3048497E-2,9.962329E-2,6.27956E-2,-5.9438583E-2,5.1249754E-2,-5.6011714E-2,6.478392E-2,-6.2507704E-2,2.2711456E-2,-9.095543E-2,4.1475207E-2],"categories":[],"categories_nodes":[],"categories_segments":[],"categories_sizes":[],"default_left":[0,0,0,0,0,0,0,0,0,0,0,0,0,0,0,0,0,0,0,0,0,0,0,0,0,0,0,0,0],"id":38,"left_children":[1,3,5,7,9,11,13,15,17,19,21,-1,23,25,27,-1,-1,-1,-1,-1,-1,-1,-1,-1,-1,-1,-1,-1,-1],"loss_changes":[2.3956758E1,6.2770233E0,1.9235682E1,3.2124062E0,3.9408245E0,2.9080524E1,1.4634256E1,4.653139E-1,2.908754E0,2.9127693E-1,1.8854464E0,0E0,7.855362E0,1.2793097E1,3.0259094E0,0E0,0E0,0E0,0E0,0E0,0E0,0E0,0E0,0E0,0E0,0E0,0E0,0E0,0E0],"parents":[2147483647,0,0,1,1,2,2,3,3,4,4,5,5,6,6,7,7,8,8,9,9,10,10,12,12,13,13,14,14],"right_children":[2,4,6,8,10,12,14,16,18,20,22,-1,24,26,28,-1,-1,-1,-1,-1,-1,-1,-1,-1,-1,-1,-1,-1,-1],"split_conditions":[1.8E1,1.637E3,8E0,1E1,4.617E3,0E0,6.7E1,3.92E2,2E0,1.5E1,1.5E1,1.193435E-1,1E0,5.97E2,1E0,9.539052E-3,8.503631E-2,8.1653915E-2,-1.3048497E-2,9.962329E-2,6.27956E-2,-5.9438583E-2,5.1249754E-2,-5.6011714E-2,6.478392E-2,-6.2507704E-2,2.2711456E-2,-9.095543E-2,4.1475207E-2],"split_indices":[15,16,8,15,16,8,15,16,8,15,15,0,9,16,7,0,0,0,0,0,0,0,0,0,0,0,0,0,0],"split_type":[0,0,0,0,0,0,0,0,0,0,0,0,0,0,0,0,0,0,0,0,0,0,0,0,0,0,0,0,0],"sum_hessian":[4.423309E2,6.992407E1,3.7240683E2,3.1101402E1,3.8822674E1,1.441271E2,2.2827972E2,6.8482614E0,2.4253141E1,3.4605755E1,4.216919E0,9.851278E0,1.3427583E2,2.1121696E2,1.706276E1,1.2442641E0,5.603997E0,2.7906568E0,2.1462484E1,2.3829348E1,1.0776407E1,2.3413475E0,1.8755716E0,1.2946606E2,4.8097734E0,1.8414467E1,1.9280249E2,1.5712496E1,1.350264E0],"tree_param":{"num_deleted":"0","num_feature":"22","num_nodes":"29","size_leaf_vector":"1"}},{"base_weights":[1.114167E-2,-5.1050458E-2,9.5307434E-1,1.1702786E-1,-9.306916E-2,1.0153532E0,-1.1171411E-2,-4.3234235E-1,8.68829E-2,1.0522752E-1,3.0203922E-2,3.4367885E-2,-5.2721035E-2,3.1768375E-3,1.0324746E-1],"categories":[],"categories_nodes":[],"categories_segments":[],"categories_sizes":[],"default_left":[0,0,0,0,0,0,0,0,0,0,0,0,0,0,0],"id":39,"left_children":[1,3,5,-1,7,9,-1,11,13,-1,-1,-1,-1,-1,-1],"loss_changes":[2.5111708E1,2.0753782E1,1.8740368E0,0E0,2.3838062E1,3.4538078E-1,0E0,1.0140097E1,1.3285859E1,0E0,0E0,0E0,0E0,0E0,0E0],"parents":[2147483647,0,0,1,1,2,2,4,4,5,5,7,7,8,8],"right_children":[2,4,6,-1,8,10,-1,12,14,-1,-1,-1,-1,-1,-1],"split_conditions":[1E0,0E0,6.7E1,1.1702786E-1,8E0,1E0,-1.1171411E-2,1.9E1,1.7295226E-1,1.0522752E-1,3.0203922E-2,3.4367885E-2,-5.2721035E-2,3.1768375E-3,1.0324746E-1],"split_indices":[9,8,15,0,8,12,0,15,18,0,0,0,0,0,0],"split_type":[0,0,0,0,0,0,0,0,0,0,0,0,0,0,0],"sum_hessian":[4.268373E2,4.0128766E2,2.5549652E1,1.2453678E1,3.8883398E2,2.4181705E1,1.3679461E0,1.3427522E2,2.5455876E2,2.2539825E1,1.6418803E0,1.4341216E1,1.19934006E2,2.4151546E2,1.3043312E1],"tree_param":{"num_deleted":"0","num_feature":"22","num_nodes":"15","size_leaf_vector":"1"}},{"base_weights":[9.192716E-3,-4.4275787E-2,9.046275E-1,-8.333636E-2,1.1219963E-1,1.0511877E-1,3.1354886E-1,-3.0545838E-2,-8.3279717E-1,-2.1125267E-1,8.3516024E-2,-2.525408E-2,1.5419001E-2,3.4727424E-2,-9.33316E-2,-5.0533712E-2,2.4512636E-2],"categories":[],"categories_nodes":[],"categories_segments":[],"categories_sizes":[],"default_left":[0,0,0,0,0,0,0,0,0,0,0,0,0,0,0,0,0],"id":40,"left_children":[1,3,5,7,-1,-1,9,11,13,15,-1,-1,-1,-1,-1,-1,-1],"loss_changes":[2.0366274E1,1.838745E1,1.746788E0,1.5384678E1,0E0,0E0,1.8701837E0,1.5003744E1,3.3597984E0,6.4494187E-1,0E0,0E0,0E0,0E0,0E0,0E0,0E0],"parents":[2147483647,0,0,1,1,2,2,3,3,6,6,7,7,8,8,9,9],"right_children":[2,4,6,8,-1,-1,10,12,14,16,-1,-1,-1,-1,-1,-1,-1],"split_conditions":[1E0,5.741228E-1,4.1E1,6.7E1,1.1219963E-1,1.0511877E-1,4.7458943E-2,1.905E3,9E0,2.531E3,8.3516024E-2,-2.525408E-2,1.5419001E-2,3.4727424E-2,-9.33316E-2,-5.0533712E-2,2.4512636E-2],"split_indices":[9,18,15,15,0,0,18,17,0,16,0,0,0,0,0,0,0],"split_type":[0,0,0,0,0,0,0,0,0,0,0,0,0,0,0,0,0],"sum_hessian":[4.235459E2,4.0057706E2,2.2968838E1,3.8849423E2,1.2082833E1,1.7781439E1,5.187399E0,3.639024E2,2.45918E1,2.8823853E0,2.3050137E0,1.6511661E2,1.987858E2,1.7376215E0,2.285418E1,1.6876265E0,1.1947588E0],"tree_param":{"num_deleted":"0","num_feature":"22","num_nodes":"17","size_leaf_vector":"1"}},{"base_weights":[-1.69784E-3,-5.250175E-2,8.7598354E-1,7.254168E-2,-3.6500248E-1,9.874444E-1,4.9686757E-1,-1.2400625E-1,1.0332032E0,-8.3094776E-1,4.9551636E-1,2.80131E-2,1.01445615E-1,-3.909127E-2,8.7420255E-2,-6.0988497E-2,6.572392E-3,1.2576124E-1,9.819618E-3,-3.0412493E-2,-1.2718306E-1,6.907912E-2,-2.6667241E-2,-5.135571E-2,4.2222783E-2],"categories":[],"categories_nodes":[],"categories_segments":[],"categories_sizes":[],"default_left":[0,0,0,0,0,0,0,0,0,0,0,0,0,0,0,0,0,0,0,0,0,0,0,0,0],"id":41,"left_children":[1,3,5,7,9,11,13,15,17,19,21,-1,-1,23,-1,-1,-1,-1,-1,-1,-1,-1,-1,-1,-1],"loss_changes":[1.9042364E1,1.5799929E1,4.9679947E-1,5.472121E1,4.67322E1,4.1484833E-2,1.5149438E0,2.2249338E1,1.0203102E1,1.7107224E1,6.317296E0,0E0,0E0,1.0884929E0,0E0,0E0,0E0,0E0,0E0,0E0,0E0,0E0,0E0,0E0,0E0],"parents":[2147483647,0,0,1,1,2,2,3,3,4,4,5,5,6,6,7,7,8,8,9,9,10,10,13,13],"right_children":[2,4,6,8,10,12,14,16,18,20,22,-1,-1,24,-1,-1,-1,-1,-1,-1,-1,-1,-1,-1,-1],"split_conditions":[1E0,8E1,3.8372984E-4,4.6E1,9E1,5.97E2,4.7458943E-2,1.317E3,1.3E1,8.2E1,1.5E1,2.80131E-2,1.01445615E-1,9.684209E-1,8.7420255E-2,-6.0988497E-2,6.572392E-3,1.2576124E-1,9.819618E-3,-3.0412493E-2,-1.2718306E-1,6.907912E-2,-2.6667241E-2,-5.135571E-2,4.2222783E-2],"split_indices":[9,3,21,3,3,16,18,16,0,3,0,0,0,20,0,0,0,0,0,0,0,0,0,0,0],"split_type":[0,0,0,0,0,0,0,0,0,0,0,0,0,0,0,0,0,0,0,0,0,0,0,0,0],"sum_hessian":[4.2502658E2,4.0265915E2,2.2367432E1,2.8813373E2,1.145254E2,1.6045443E1,6.32199E0,2.3991824E2,4.82155E1,7.431851E1,4.020689E1,1.0084876E0,1.5036955E1,2.982339E0,3.339651E0,6.675396E1,1.7316428E2,3.8604973E1,9.610525E0,3.462909E1,3.968942E1,3.208126E1,8.125631E0,1.4143976E0,1.5679413E0],"tree_param":{"num_deleted":"0","num_feature":"22","num_nodes":"25","size_leaf_vector":"1"}},{"base_weights":[-4.9464125E-3,1.351491E-1,-3.5721815E-1,-2.7658792E-2,9.237857E-1,-8.125074E-1,4.4447663E-1,7.096144E-2,-8.3845216E-1,1.0549109E0,-7.052225E-1,-2.0598198E-1,-1.3609834E0,5.1525176E-1,-7.843516E-2,8.388724E-2,-4.5023332E-3,-1.0648797E-1,9.049061E-3,1.1500981E-1,-3.4623448E-2,4.829184E-3,-9.477726E-2,6.569193E-2,-4.7719624E-2,-1.8502127E-1,-1.1280419E-1,8.849454E-2,1.714847E-2],"categories":[],"categories_nodes":[],"categories_segments":[],"categories_sizes":[],"default_left":[0,0,0,0,0,0,0,0,0,0,0,0,0,0,0,0,0,0,0,0,0,0,0,0,0,0,0,0,0],"id":42,"left_children":[1,3,5,7,9,11,13,15,17,19,21,23,25,27,-1,-1,-1,-1,-1,-1,-1,-1,-1,-1,-1,-1,-1,-1,-1],"loss_changes":[2.0437435E1,3.8071022E1,4.336839E1,1.9776173E1,1.1580742E1,2.4836784E1,4.1720724E0,1.9700127E1,5.7372246E0,6.713894E0,8.460641E-1,8.980213E0,2.411003E0,5.131112E0,0E0,0E0,0E0,0E0,0E0,0E0,0E0,0E0,0E0,0E0,0E0,0E0,0E0,0E0,0E0],"parents":[2147483647,0,0,1,1,2,2,3,3,4,4,5,5,6,6,7,7,8,8,9,9,10,10,11,11,12,12,13,13],"right_children":[2,4,6,8,10,12,14,16,18,20,22,24,26,28,-1,-1,-1,-1,-1,-1,-1,-1,-1,-1,-1,-1,-1,-1,-1],"split_conditions":[8E1,4.6E1,9E1,3.1E1,1.4E1,8.2E1,1E0,1E1,3.7E1,4.617E3,1E0,2.2E1,2.6E1,3.2E1,-7.843516E-2,8.388724E-2,-4.5023332E-3,-1.0648797E-1,9.049061E-3,1.1500981E-1,-3.4623448E-2,4.829184E-3,-9.477726E-2,6.569193E-2,-4.7719624E-2,-1.8502127E-1,-1.1280419E-1,8.849454E-2,1.714847E-2],"split_indices":[3,3,3,3,0,3,2,0,3,16,10,15,15,15,0,0,0,0,0,0,0,0,0,0,0,0,0,0,0],"split_type":[0,0,0,0,0,0,0,0,0,0,0,0,0,0,0,0,0,0,0,0,0,0,0,0,0,0,0,0,0],"sum_hessian":[4.1213998E2,2.953129E2,1.168271E2,2.4557977E2,4.9733105E1,7.450283E1,4.2324276E1,2.1976172E2,2.5818068E1,4.635429E1,3.3788168E0,3.60324E1,3.8470432E1,4.056841E1,1.7558664E0,2.8019281E1,1.9174243E2,2.064063E1,5.1774364E0,4.35733E1,2.78099E0,1.0177964E0,2.3610206E0,8.276754E0,2.7755646E1,1.0169463E1,2.830097E1,1.8788568E1,2.177984E1],"tree_param":{"num_deleted":"0","num_feature":"22","num_nodes":"29","size_leaf_vector":"1"}},{"base_weights":[2.3758642E-3,6.198487E-1,-6.453487E-2,7.5933737E-1,-3.05438E-1,-1.3602884E-1,5.5470496E-1,-1.4980918E-1,8.640431E-1,5.0195176E-2,-6.432383E-1,-1.30889695E-2,-1.165997E0,7.183901E-1,-2.9135004E-1,-5.246942E-2,5.172605E-2,9.413878E-2,1.1017375E-2,-9.79875E-2,4.2414605E-3,-1.4219697E-2,3.5668377E-2,-1.2535886E-1,-4.032357E-2,8.6570136E-2,2.4538857E-3,6.868531E-2,-5.774346E-2],"categories":[],"categories_nodes":[],"categories_segments":[],"categories_sizes":[],"default_left":[0,0,0,0,0,0,0,0,0,0,0,0,0,0,0,0,0,0,0,0,0,0,0,0,0,0,0,0,0],"id":43,"left_children":[1,3,5,7,9,11,13,15,17,-1,19,21,23,25,27,-1,-1,-1,-1,-1,-1,-1,-1,-1,-1,-1,-1,-1,-1],"loss_changes":[1.6845306E1,5.3767824E0,1.636278E1,3.4542122E0,1.9416103E0,4.1848904E1,5.509944E0,1.3865595E0,1.7310772E0,0E0,1.1085685E0,1.4199779E1,1.8492088E0,3.2862701E0,2.3320894E0,0E0,0E0,0E0,0E0,0E0,0E0,0E0,0E0,0E0,0E0,0E0,0E0,0E0,0E0],"parents":[2147483647,0,0,1,1,2,2,3,3,4,4,5,5,6,6,7,7,8,8,10,10,11,11,12,12,13,13,14,14],"right_children":[2,4,6,8,10,12,14,16,18,-1,20,22,24,26,28,-1,-1,-1,-1,-1,-1,-1,-1,-1,-1,-1,-1,-1,-1],"split_conditions":[1.5E1,1.8E1,9E1,6.24E2,9E0,8.2E1,5.7E1,1.5E1,1.1111111E-1,5.0195176E-2,1.2E1,3.7E1,1.7E1,1.5E1,5.61E2,-5.246942E-2,5.172605E-2,9.413878E-2,1.1017375E-2,-9.79875E-2,4.2414605E-3,-1.4219697E-2,3.5668377E-2,-1.2535886E-1,-4.032357E-2,8.6570136E-2,2.4538857E-3,6.868531E-2,-5.774346E-2],"split_indices":[15,0,3,17,15,3,15,8,18,0,15,3,0,0,17,0,0,0,0,0,0,0,0,0,0,0,0,0,0],"split_type":[0,0,0,0,0,0,0,0,0,0,0,0,0,0,0,0,0,0,0,0,0,0,0,0,0,0,0,0,0],"sum_hessian":[4.0575482E2,3.886186E1,3.6689297E2,3.3926697E1,4.9351635E0,3.2961752E2,3.7275463E1,3.4592962E0,3.04674E1,1.3124006E0,3.622763E0,2.953736E2,3.4243904E1,3.135931E1,5.916152E0,2.3513181E0,1.1079781E0,2.7406805E1,3.0605936E0,2.1419914E0,1.4807714E0,2.1938847E2,7.598513E1,3.0139368E1,4.104537E0,2.5663113E1,5.6961985E0,1.0217226E0,4.894429E0],"tree_param":{"num_deleted":"0","num_feature":"22","num_nodes":"29","size_leaf_vector":"1"}},{"base_weights":[5.518067E-4,-4.113528E-2,1.03812635E-1,1.14698224E-1,-3.3722952E-1,-1.712972E-1,3.3068264E-1,3.827393E-1,-4.4290006E-1,-2.196234E-2,1.5458715E-1,4.5358937E-2,-4.4927325E-2,5.9629798E-2,-5.0512183E-2,-4.944014E-2,1.2212934E-1],"categories":[],"categories_nodes":[],"categories_segments":[],"categories_sizes":[],"default_left":[0,0,0,0,0,0,0,0,0,0,0,0,0,0,0,0,0],"id":44,"left_children":[1,3,-1,5,7,9,11,13,15,-1,-1,-1,-1,-1,-1,-1,-1],"loss_changes":[1.74715E1,1.7957397E1,0E0,1.5819336E1,1.0376513E1,9.505483E0,1.4173434E1,3.658705E0,1.06706505E1,0E0,0E0,0E0,0E0,0E0,0E0,0E0,0E0],"parents":[2147483647,0,0,1,1,3,3,4,4,5,5,6,6,7,7,8,8],"right_children":[2,4,-1,6,8,10,12,14,16,-1,-1,-1,-1,-1,-1,-1,-1],"split_conditions":[2.4234265E-1,3.4530388E-4,1.03812635E-1,1.795E3,1.9E1,1E0,2E0,8E1,1.16E2,-2.196234E-2,1.5458715E-1,4.5358937E-2,-4.4927325E-2,5.9629798E-2,-5.0512183E-2,-4.944014E-2,1.2212934E-1],"split_indices":[18,21,0,16,15,10,19,3,3,0,0,0,0,0,0,0,0],"split_type":[0,0,0,0,0,0,0,0,0,0,0,0,0,0,0,0,0],"sum_hessian":[4.019457E2,3.8734357E2,1.4602119E1,2.5418134E2,1.3316225E2,1.09454384E2,1.4472696E2,1.6707367E1,1.1645488E2,1.0730656E2,2.1478224E0,1.2538675E2,1.9340206E1,1.3732625E1,2.974742E0,1.1364098E2,2.8138971E0],"tree_param":{"num_deleted":"0","num_feature":"22","num_nodes":"17","size_leaf_vector":"1"}},{"base_weights":[8.043728E-3,7.816542E-2,-7.0221907E-1,-5.977771E-2,3.9440435E-1,-2.3616558E-1,-8.663041E-1,-1.1176154E-1,9.107081E-1,4.596074E-1,-6.9497633E-1,2.3373787E-1,-1.05092384E-1,-9.1969824E-1,2.3051316E-2,1.06706955E-1,-1.4863567E-2,1.4922609E-2,1.09061874E-1,-3.3698395E-2,5.3652603E-2,4.6889886E-2,-1.0038719E-1,6.827746E-2,-5.3746082E-2,-1.9227032E-3,-9.750159E-2],"categories":[],"categories_nodes":[],"categories_segments":[],"categories_sizes":[],"default_left":[0,0,0,0,0,0,0,0,0,0,0,0,0,0,0,0,0,0,0,0,0,0,0,0,0,0,0],"id":45,"left_children":[1,3,5,7,9,11,13,15,17,19,21,23,-1,25,-1,-1,-1,-1,-1,-1,-1,-1,-1,-1,-1,-1,-1],"loss_changes":[1.998219E1,1.5948404E1,2.552391E0,1.2968962E1,8.204241E0,4.3661633E0,1.751606E0,1.0720282E1,1.6287079E0,6.6351852E0,2.8675747E0,3.0140123E0,0E0,1.239975E0,0E0,0E0,0E0,0E0,0E0,0E0,0E0,0E0,0E0,0E0,0E0,0E0,0E0],"parents":[2147483647,0,0,1,1,2,2,3,3,4,4,5,5,6,6,7,7,8,8,9,9,10,10,11,11,13,13],"right_children":[2,4,6,8,10,12,14,16,18,20,22,24,-1,26,-1,-1,-1,-1,-1,-1,-1,-1,-1,-1,-1,-1,-1],"split_conditions":[4.617E3,2.681E3,1E0,1.629393E-1,7.4E1,7.295976E-2,1.3712047E-1,0E0,7.82E2,2.3400936E-2,3.006012E-2,4.1E1,-1.05092384E-1,4.811E3,2.3051316E-2,1.06706955E-1,-1.4863567E-2,1.4922609E-2,1.09061874E-1,-3.3698395E-2,5.3652603E-2,4.6889886E-2,-1.0038719E-1,6.827746E-2,-5.3746082E-2,-1.9227032E-3,-9.750159E-2],"split_indices":[16,17,10,18,15,18,18,8,16,18,18,15,0,17,0,0,0,0,0,0,0,0,0,0,0,0,0],"split_type":[0,0,0,0,0,0,0,0,0,0,0,0,0,0,0,0,0,0,0,0,0,0,0,0,0,0,0],"sum_hessian":[3.9910785E2,3.6405588E2,3.505198E1,2.5405032E2,1.1000554E2,9.762544E0,2.5289433E1,2.4197389E2,1.2076432E1,1.0433863E2,5.6669097E0,6.6438766E0,3.1186676E0,2.4269457E1,1.019977E0,6.492018E0,2.3548187E2,2.6575687E0,9.418863E0,8.89002E0,9.5448616E1,1.0799237E0,4.5869856E0,4.2714486E0,2.372428E0,1.4826219E0,2.2786835E1],"tree_param":{"num_deleted":"0","num_feature":"22","num_nodes":"27","size_leaf_vector":"1"}},{"base_weights":[-1.7808694E-2,-6.470564E-2,8.388689E-1,1.1071911E-1,-1.0067168E-1,1.03268944E-1,2.8451538E-1,-4.0848717E-1,5.8742747E-2,-1.1881282E-1,7.6668076E-2,-2.555042E-2,-7.581463E-2,2.0029095E-3,1.0354151E-1,3.72751E-2,-4.6402942E-2],"categories":[],"categories_nodes":[],"categories_segments":[],"categories_sizes":[],"default_left":[0,0,0,0,0,0,0,0,0,0,0,0,0,0,0,0,0],"id":46,"left_children":[1,3,5,-1,7,-1,9,11,13,15,-1,-1,-1,-1,-1,-1,-1],"loss_changes":[1.5838575E1,1.5850558E1,1.9048176E0,0E0,1.784717E1,0E0,1.390419E0,6.442074E0,9.060051E0,9.3726504E-1,0E0,0E0,0E0,0E0,0E0,0E0,0E0],"parents":[2147483647,0,0,1,1,2,2,4,4,6,6,7,7,8,8,9,9],"right_children":[2,4,6,-1,8,-1,10,12,14,16,-1,-1,-1,-1,-1,-1,-1],"split_conditions":[1E0,0E0,3.6E1,1.1071911E-1,8E0,1.03268944E-1,4.7458943E-2,7.9E1,2.4234265E-1,3.8612366E-1,7.6668076E-2,-2.555042E-2,-7.581463E-2,2.0029095E-3,1.0354151E-1,3.72751E-2,-4.6402942E-2],"split_indices":[9,8,15,0,8,0,18,3,18,20,0,0,0,0,0,0,0],"split_type":[0,0,0,0,0,0,0,0,0,0,0,0,0,0,0,0,0],"sum_hessian":[3.9188303E2,3.7242017E2,1.946286E1,1.0202528E1,3.6221765E2,1.3781511E1,5.6813483E0,1.2305214E2,2.391655E2,3.5039234E0,2.177425E0,8.680424E1,3.6247902E1,2.3102843E2,8.137072E0,1.4126503E0,2.091273E0],"tree_param":{"num_deleted":"0","num_feature":"22","num_nodes":"17","size_leaf_vector":"1"}},{"base_weights":[9.033384E-3,-2.5210325E-2,9.843044E-2,2.8391996E-2,-5.932886E-1,8.875522E-2,-5.8612293E-1,-6.926434E-1,9.442633E-2,2.1213993E-2,-2.3311429E-2,-4.642157E-3,-8.038614E-2,4.2820033E-2,-7.667309E-2],"categories":[],"categories_nodes":[],"categories_segments":[],"categories_sizes":[],"default_left":[0,0,0,0,0,0,0,0,0,0,0,0,0,0,0],"id":47,"left_children":[1,3,-1,5,7,9,11,13,-1,-1,-1,-1,-1,-1,-1],"loss_changes":[1.3145197E1,1.1603528E1,0E0,1.29851465E1,5.6729155E0,1.2691963E1,3.6428013E0,2.9388332E0,0E0,0E0,0E0,0E0,0E0,0E0,0E0],"parents":[2147483647,0,0,1,1,3,3,4,4,5,5,6,6,7,7],"right_children":[2,4,-1,6,8,10,12,14,-1,-1,-1,-1,-1,-1,-1],"split_conditions":[2.4234265E-1,1.7452007E-3,9.843044E-2,4.617E3,1.16E2,7.9E1,3.8612366E-1,1.81E2,9.442633E-2,2.1213993E-2,-2.3311429E-2,-4.642157E-3,-8.038614E-2,4.2820033E-2,-7.667309E-2],"split_indices":[18,21,0,16,3,3,20,16,0,0,0,0,0,0,0],"split_type":[0,0,0,0,0,0,0,0,0,0,0,0,0,0,0],"sum_hessian":[3.9186237E2,3.7951114E2,1.2351242E1,3.4765717E2,3.1853966E1,3.1734067E2,3.0316507E1,3.0436697E1,1.4172692E0,2.296486E2,8.769205E1,9.063729E0,2.1252779E1,1.5907735E0,2.8845922E1],"tree_param":{"num_deleted":"0","num_feature":"22","num_nodes":"15","size_leaf_vector":"1"}},{"base_weights":[4.737917E-2,1.1917884E-1,-4.6228263E-1,1.6931818E-1,-6.24551E-1,-6.5730834E-1,-9.151616E-2,-4.249969E-1,2.4677727E-1,-7.4076396E-1,8.533401E-2,8.630605E-2,-7.440092E-1,1.520736E-1,-6.961812E-1,-5.0042775E-2,8.405974E-2,3.7607443E-2,-9.360026E-3,-7.291621E-3,-9.179212E-2,6.522195E-2,-7.024372E-2,-5.4877754E-2,-9.110042E-2,4.0821295E-2,-6.974866E-2,-8.4331326E-2,-4.2136568E-3],"categories":[],"categories_nodes":[],"categories_segments":[],"categories_sizes":[],"default_left":[0,0,0,0,0,0,0,0,0,0,0,0,0,0,0,0,0,0,0,0,0,0,0,0,0,0,0,0,0],"id":48,"left_children":[1,3,5,7,9,11,13,15,17,19,-1,21,23,25,27,-1,-1,-1,-1,-1,-1,-1,-1,-1,-1,-1,-1,-1,-1],"loss_changes":[1.4287526E1,1.2847853E1,3.4273767E0,1.4877883E1,4.3753433E0,2.091483E0,2.7256787E0,3.988143E0,1.2557661E1,2.387022E0,0E0,2.3236783E0,4.2156982E-1,3.2223353E0,4.732399E-1,0E0,0E0,0E0,0E0,0E0,0E0,0E0,0E0,0E0,0E0,0E0,0E0,0E0,0E0],"parents":[2147483647,0,0,1,1,2,2,3,3,4,4,5,5,6,6,7,7,8,8,9,9,11,11,12,12,13,13,14,14],"right_children":[2,4,6,8,10,12,14,16,18,20,-1,22,24,26,28,-1,-1,-1,-1,-1,-1,-1,-1,-1,-1,-1,-1,-1,-1],"split_conditions":[5.6E1,3E0,5.5269923E-2,6.77E2,9.8E1,9E0,7.4E1,1E0,7.9E1,2.11E3,8.533401E-2,3.6773924E-2,6.6E1,4.031E3,5.369E3,-5.0042775E-2,8.405974E-2,3.7607443E-2,-9.360026E-3,-7.291621E-3,-9.179212E-2,6.522195E-2,-7.024372E-2,-5.4877754E-2,-9.110042E-2,4.0821295E-2,-6.974866E-2,-8.4331326E-2,-4.2136568E-3],"split_indices":[15,19,18,16,3,0,15,9,3,16,0,18,15,16,16,0,0,0,0,0,0,0,0,0,0,0,0,0,0],"split_type":[0,0,0,0,0,0,0,0,0,0,0,0,0,0,0,0,0,0,0,0,0,0,0,0,0,0,0,0,0],"sum_hessian":[3.8793283E2,3.407019E2,4.723093E1,3.1990735E2,2.0794558E1,3.0444221E1,1.6786709E1,3.6369648E1,2.835377E2,1.9741007E1,1.0535517E0,3.1794364E0,2.7264786E1,1.2499696E1,4.287013E0,3.489449E1,1.4751582E0,2.0540634E2,7.813134E1,4.4346895E0,1.5306316E1,1.9519949E0,1.2274417E0,1.4545742E1,1.2719044E1,1.0003252E1,2.4964435E0,3.2634864E0,1.0235265E0],"tree_param":{"num_deleted":"0","num_feature":"22","num_nodes":"29","size_leaf_vector":"1"}},{"base_weights":[-1.659242E-2,4.425374E-2,-5.678548E-1,1.0788571E-1,1.3650136E-2,-3.7090638E-1,-8.7209105E-1,-2.7981055E-1,1.5985227E-1,-7.643158E-1,5.437438E-2,1.3895748E-3,-9.8750114E-2,-3.3356186E-2,9.36957E-2,3.0195674E-2,-1.4878325E-2,-8.672454E-2,-2.3585698E-2,7.362301E-2,-4.697027E-2],"categories":[],"categories_nodes":[],"categories_segments":[],"categories_sizes":[],"default_left":[0,0,0,0,0,0,0,0,0,0,0,0,0,0,0,0,0,0,0,0,0],"id":49,"left_children":[1,3,5,-1,7,9,11,13,15,17,19,-1,-1,-1,-1,-1,-1,-1,-1,-1,-1],"loss_changes":[1.280262E1,1.087716E1,1.9498043E0,0E0,1.4423267E1,4.1858807E0,1.4624977E0,7.6248655E0,9.883425E0,4.9897385E-1,4.932914E0,0E0,0E0,0E0,0E0,0E0,0E0,0E0,0E0,0E0,0E0],"parents":[2147483647,0,0,1,1,2,2,4,4,5,5,6,6,7,7,8,8,9,9,10,10],"right_children":[2,4,6,-1,8,10,12,14,16,18,20,-1,-1,-1,-1,-1,-1,-1,-1,-1,-1],"split_conditions":[6E1,0E0,7.4E1,1.0788571E-1,8E0,6.4E1,9E0,1E0,1.3E1,1.7E1,6.7E1,1.3895748E-3,-9.8750114E-2,-3.3356186E-2,9.36957E-2,3.0195674E-2,-1.4878325E-2,-8.672454E-2,-2.3585698E-2,7.362301E-2,-4.697027E-2],"split_indices":[15,8,15,0,8,15,0,1,0,8,15,0,0,0,0,0,0,0,0,0,0],"split_type":[0,0,0,0,0,0,0,0,0,0,0,0,0,0,0,0,0,0,0,0,0],"sum_hessian":[3.7993774E2,3.4299863E2,3.693911E1,8.870335E0,3.341283E2,2.3770395E1,1.3168714E1,1.1080459E2,2.233237E2,1.1933765E1,1.1836629E1,1.6190554E0,1.1549659E1,1.0681198E2,3.9926069E0,1.5293141E2,7.039229E1,9.451736E0,2.4820292E0,4.9680653E0,6.8685637E0],"tree_param":{"num_deleted":"0","num_feature":"22","num_nodes":"21","size_leaf_vector":"1"}},{"base_weights":[1.4783646E-3,1.0230411E-1,-3.3079118E-1,-1.2986942E-1,4.7308445E-1,-4.0219688E-1,1.3783608E-1,2.6569572E-1,-3.4930727E-1,5.086156E-1,-1.23002164E-1,-4.6062344E-1,6.8408704E-1,7.432422E-2,7.6970444E-3,-4.935072E-2,-7.1565895E-3,3.1699136E-2,7.9461075E-2,-6.852864E-2,-2.7279371E-2,8.932074E-2,-2.1032332E-3],"categories":[],"categories_nodes":[],"categories_segments":[],"categories_sizes":[],"default_left":[0,0,0,0,0,0,0,0,0,0,0,0,0,0,0,0,0,0,0,0,0,0,0],"id":50,"left_children":[1,3,5,7,9,11,-1,13,15,17,-1,19,21,-1,-1,-1,-1,-1,-1,-1,-1,-1,-1],"loss_changes":[1.2776513E1,2.524808E1,1.1390072E1,1.5778107E1,7.456072E0,5.7732983E0,0E0,5.804879E0,4.636876E0,5.8464375E0,0E0,3.2820816E0,7.253659E-1,0E0,0E0,0E0,0E0,0E0,0E0,0E0,0E0,0E0,0E0],"parents":[2147483647,0,0,1,1,2,2,3,3,4,4,5,5,7,7,8,8,9,9,11,11,12,12],"right_children":[2,4,6,8,10,12,-1,14,16,18,-1,20,22,-1,-1,-1,-1,-1,-1,-1,-1,-1,-1],"split_conditions":[1.4E1,1.2E1,1E0,1E1,1E0,1E0,1.3783608E-1,2.5E1,1.1E1,2.659E3,-1.23002164E-1,2.07E3,3.2E1,7.432422E-2,7.6970444E-3,-4.935072E-2,-7.1565895E-3,3.1699136E-2,7.9461075E-2,-6.852864E-2,-2.7279371E-2,8.932074E-2,-2.1032332E-3],"split_indices":[0,0,1,0,5,9,0,15,0,16,0,17,15,0,0,0,0,0,0,0,0,0,0],"split_type":[0,0,0,0,0,0,0,0,0,0,0,0,0,0,0,0,0,0,0,0,0,0,0],"sum_hessian":[3.7936322E2,2.9157742E2,8.778579E1,1.7970212E2,1.11875305E2,8.499934E1,2.7864583E0,6.40439E1,1.1565822E2,1.10276024E2,1.599281E0,8.12075E1,3.7918394E0,1.730853E1,4.6735367E1,7.5620255E1,4.0037968E1,6.7295E1,4.298103E1,3.5772095E1,4.5435402E1,2.718774E0,1.0730652E0],"tree_param":{"num_deleted":"0","num_feature":"22","num_nodes":"23","size_leaf_vector":"1"}},{"base_weights":[-6.017631E-3,-2.3896372E-1,1.4363019E-1,1.0524287E-1,-3.2509288E-1,2.893458E-1,-1.3078141E-1,-3.773068E-1,9.9772245E-1,3.831177E-1,-3.0613697E-1,-4.666191E-1,1.947023E-1,5.910451E-2,-4.449654E-2,1.2943022E-1,-6.7488337E-3,-3.913534E-2,4.4850565E-2,6.8807356E-2,-5.18488E-2,-5.5389423E-2,3.3541616E-2,4.618491E-2,-4.356343E-2],"categories":[],"categories_nodes":[],"categories_segments":[],"categories_sizes":[],"default_left":[0,0,0,0,0,0,0,0,0,0,0,0,0,0,0,0,0,0,0,0,0,0,0,0,0],"id":51,"left_children":[1,3,5,-1,7,9,11,13,15,17,19,21,23,-1,-1,-1,-1,-1,-1,-1,-1,-1,-1,-1,-1],"loss_changes":[1.3080091E1,1.6665024E1,9.173895E0,0E0,9.931626E0,8.467905E0,8.828451E0,9.030142E0,1.833643E0,6.7408943E0,4.769496E0,2.960206E0,7.1555514E0,0E0,0E0,0E0,0E0,0E0,0E0,0E0,0E0,0E0,0E0,0E0,0E0],"parents":[2147483647,0,0,1,1,2,2,4,4,5,5,6,6,7,7,8,8,9,9,10,10,11,11,12,12],"right_children":[2,4,6,-1,8,10,12,14,16,18,20,22,24,-1,-1,-1,-1,-1,-1,-1,-1,-1,-1,-1,-1],"split_conditions":[9E0,0E0,4E1,1.0524287E-1,1E0,2.2E1,2.463E3,1.5E1,3.181E3,5.85E2,1.5E1,1.05E2,3.997E3,5.910451E-2,-4.449654E-2,1.2943022E-1,-6.7488337E-3,-3.913534E-2,4.4850565E-2,6.8807356E-2,-5.18488E-2,-5.5389423E-2,3.3541616E-2,4.618491E-2,-4.356343E-2],"split_indices":[8,8,15,0,1,8,17,15,17,16,15,3,17,0,0,0,0,0,0,0,0,0,0,0,0],"split_type":[0,0,0,0,0,0,0,0,0,0,0,0,0,0,0,0,0,0,0,0,0,0,0,0,0],"sum_hessian":[3.7323453E2,1.4575354E2,2.2748099E2,8.411722E0,1.3734181E2,1.4854665E2,7.893435E1,1.3281418E2,4.5276456E0,1.2864523E2,1.9901405E1,3.863584E1,4.0298508E1,8.168483E0,1.2464569E2,3.3733573E0,1.1542884E0,9.62766E0,1.1901758E2,3.108305E0,1.67931E1,3.5123222E1,3.5126169E0,2.8490904E1,1.1807605E1],"tree_param":{"num_deleted":"0","num_feature":"22","num_nodes":"25","size_leaf_vector":"1"}},{"base_weights":[-3.5362511E-3,-4.237261E-2,8.182401E-1,2.1116586E-2,-5.4350424E-1,9.1253877E-1,-2.5514753E-3,-1.0968673E-1,3.6974055E-1,-5.949272E-1,5.694471E-2,1.000098E-1,3.4907433E-1,7.299217E-2,-1.5547424E-2,5.2340236E-2,-5.901819E-2,-7.603884E-2,-1.86201E-2,-2.1332258E-3,6.1333627E-2],"categories":[],"categories_nodes":[],"categories_segments":[],"categories_sizes":[],"default_left":[0,0,0,0,0,0,0,0,0,0,0,0,0,0,0,0,0,0,0,0,0],"id":52,"left_children":[1,3,5,7,9,11,-1,13,15,17,-1,-1,19,-1,-1,-1,-1,-1,-1,-1,-1],"loss_changes":[1.1811071E1,1.1252046E1,1.3520699E0,1.4383514E1,2.6145124E0,3.9335728E-1,0E0,8.935803E0,1.3000523E1,2.4618874E0,0E0,0E0,3.6157233E-1,0E0,0E0,0E0,0E0,0E0,0E0,0E0,0E0],"parents":[2147483647,0,0,1,1,2,2,3,3,4,4,5,5,7,7,8,8,9,9,12,12],"right_children":[2,4,6,8,10,12,-1,14,16,18,-1,-1,20,-1,-1,-1,-1,-1,-1,-1,-1],"split_conditions":[1E0,4.145E3,1E0,2.698E3,2.4E1,4.3E1,-2.5514753E-3,1.1E1,1.6E1,9.869279E-1,5.694471E-2,1.000098E-1,9.684209E-1,7.299217E-2,-1.5547424E-2,5.2340236E-2,-5.901819E-2,-7.603884E-2,-1.86201E-2,-2.1332258E-3,6.1333627E-2],"split_indices":[9,16,12,16,19,15,0,15,0,20,0,0,20,0,0,0,0,0,0,0,0],"split_type":[0,0,0,0,0,0,0,0,0,0,0,0,0,0,0,0,0,0,0,0,0],"sum_hessian":[3.6799496E2,3.522943E2,1.5700651E1,3.1353046E2,3.8763832E1,1.4049004E1,1.6516482E0,2.2848756E2,8.504291E1,3.7496777E1,1.2670554E0,1.1488798E1,2.5602055E0,1.1043351E1,2.1744421E2,7.369996E1,1.1342944E1,2.6079035E1,1.1417743E1,1.4487792E0,1.1114264E0],"tree_param":{"num_deleted":"0","num_feature":"22","num_nodes":"21","size_leaf_vector":"1"}},{"base_weights":[-3.8732893E-3,-4.4344656E-2,8.43524E-1,1.0365107E-1,-7.2373815E-2,9.1684794E-1,2.1669079E-2,-2.433462E-2,-6.497726E-1,9.467465E-2,2.5395146E-2,9.684782E-3,-3.260271E-2,-7.5169176E-2,8.451031E-2],"categories":[],"categories_nodes":[],"categories_segments":[],"categories_sizes":[],"default_left":[0,0,0,0,0,0,0,0,0,0,0,0,0,0,0],"id":53,"left_children":[1,3,5,-1,7,9,-1,11,13,-1,-1,-1,-1,-1,-1],"loss_changes":[1.2631523E1,1.0721946E1,5.7298374E-1,0E0,9.511779E0,5.1342964E-2,0E0,1.1662863E1,4.648937E0,0E0,0E0,0E0,0E0,0E0,0E0],"parents":[2147483647,0,0,1,1,2,2,4,4,5,5,7,7,8,8],"right_children":[2,4,6,-1,8,10,-1,12,14,-1,-1,-1,-1,-1,-1],"split_conditions":[1E0,0E0,1.4316392E-3,1.0365107E-1,1.7910447E-3,4.353E3,2.1669079E-2,7.9E1,1.16E2,9.467465E-2,2.5395146E-2,9.684782E-3,-3.260271E-2,-7.5169176E-2,8.451031E-2],"split_indices":[9,8,21,0,21,16,0,3,3,0,0,0,0,0,0],"split_type":[0,0,0,0,0,0,0,0,0,0,0,0,0,0,0],"sum_hessian":[3.662255E2,3.5043643E2,1.578904E1,7.9484887E0,3.4248795E2,1.3721318E1,2.0677211E0,3.1714392E2,2.5344017E1,1.2719439E1,1.00188E0,2.2674503E2,9.03989E1,2.41918E1,1.1522189E0],"tree_param":{"num_deleted":"0","num_feature":"22","num_nodes":"15","size_leaf_vector":"1"}},{"base_weights":[-6.952669E-3,-7.56694E-2,5.685721E-1,4.515591E-2,-1.2385132E0,6.2372565E-1,-5.65295E-2,-8.893798E-2,4.1876525E-1,-7.6957464E-1,-1.3720812E-1,6.9503176E-1,-3.0435625E-1,-2.0695913E-4,-1.0016209E-1,1.1923381E-1,1.668152E-2,-8.574002E-2,-3.2702275E-3,-2.3618892E-2,7.8905225E-2,8.636174E-3,-5.4528583E-2],"categories":[],"categories_nodes":[],"categories_segments":[],"categories_sizes":[],"default_left":[0,0,0,0,0,0,0,0,0,0,0,0,0,0,0,0,0,0,0,0,0,0,0],"id":54,"left_children":[1,3,5,7,9,11,-1,13,15,17,-1,19,21,-1,-1,-1,-1,-1,-1,-1,-1,-1,-1],"loss_changes":[1.437445E1,4.5663803E1,2.777132E0,1.4817373E1,8.600273E-1,2.6896973E0,0E0,